1340 100
exemplo -0.0012020502 0.0004742832 -0.0048376606 -0.0036162196 0.00268872 0.005407405 0.00021061895 -0.005669385 -0.0030953544 -0.0038922427 -0.0022822763 -0.006071177 -0.0028195425 0.0003281177 0.0037081651 -0.0036771533 0.0035266129 0.004616005 0.0029017164 0.0054105944 -0.0044290614 -0.0047042533 0.0019095263 -0.003896807 0.00063073996 -0.0021207517 -0.004909106 -0.0017500271 0.0013206775 0.005860845 0.0010697964 -0.0019819646 0.0021577831 0.0033912472 0.0031369245 0.005079806 -0.00076297973 -0.008149918 -0.0018848989 0.003438467 0.00093746954 -0.004006338 0.00097153446 0.00036857638 0.0042935438 -0.001001676 -0.0043864045 0.0012669752 0.0053047435 -0.0009796944 -0.008446155 -0.0039484254 -0.0024751876 0.0009418429 0.0023793073 -0.0009902732 0.0058637094 0.00083392934 0.0019962385 -0.0055104145 -0.0006452007 0.00076701725 -0.0008334589 -0.0050373035 -0.0053178887 -0.0021038589 0.0034888596 -0.0007757524 -0.0050688144 -4.1026444e-05 -0.0012816649 -0.00047019732 -0.0015436823 0.0005089986 -0.001970322 0.000865177 0.00203293 0.003831609 -0.0028969264 -0.00717999 -0.008239139 0.0014059285 0.0008097276 0.0032905121 -0.0018095067 -0.0023272643 0.0010841287 0.009080112 -0.0050162636 -0.0037788362 0.004053182 0.0019096833 0.008017271 -0.004285493 -0.005439017 0.0058678645 -0.0021794164 0.0031483017 -0.0028358619 0.0029910817
ver -0.0021454596 -0.0029817617 7.503181e-05 -0.0024371203 -0.005751398 -0.0025045099 -3.0595955e-05 0.0009899407 -0.001815103 0.0047787833 -0.0045302105 -0.0034201874 0.0049572587 -0.006056355 0.0018568948 -0.0036549477 0.0009979008 0.0021118915 0.0015070641 0.005225156 0.0043712663 -0.004750863 0.00072542607 -0.0038699117 -0.003227969 0.0034227842 -0.0022886628 0.0030110925 0.0020259123 0.0046167476 -0.0009742254 0.0016484678 -0.0043996833 -0.0015754912 -0.0024544615 -0.0030837974 -0.00088884274 -0.0044430275 -0.0035291223 0.0014825225 0.0051584644 -0.0036146299 0.000714604 -2.2521084e-05 0.0028154503 0.00374194 0.0033242807 0.0005462494 0.00032613878 -0.0008479084 -0.002938426 -0.0008168398 -0.0029238255 -0.0004912744 0.007106614 -0.0034033959 0.0013511992 -0.005600529 0.005648396 -0.005444897 -0.0044579376 0.0030037523 0.0051625394 -0.00803764 -0.0020656395 -0.006674681 -0.0036489589 0.003992342 -0.0005436361 -0.00024255444 0.001389085 -0.00090743345 0.00488768 -0.0031852433 -0.0013574405 0.001982928 0.0047298213 0.0032000723 -0.00310733 -0.006444597 0.0009136825 -0.0016664347 -0.0008957513 -0.00021663966 0.00034086598 -0.0037624694 -0.0008593254 0.0047030416 -0.0051929783 -0.003550455 0.00584438 -0.0013815258 0.0067444337 0.00029980016 -0.0004891984 0.00090861425 -0.0015244143 0.00059180695 -0.0011940828 0.005382971
uso -0.0011116689 0.001652806 -0.00096503546 -0.0035165465 -0.004825767 -0.0017002436 -0.0021722808 -0.0038959421 -0.005303022 0.0050434307 0.0038640413 0.0016643988 0.0017426918 -0.0026208386 0.006162451 -0.006069898 0.0016768106 0.0018491778 -0.004390957 -0.0021899089 -8.5051164e-05 -0.0001738721 0.004622976 0.0028440957 0.0045838417 -0.00087429245 -0.002443181 0.004823744 -0.00017887127 0.00676133 -0.0009250276 0.00020563192 -0.0012008057 0.005934859 0.0020278145 -0.0021772354 -0.00092252565 -0.002259795 -0.005214576 0.00397167 -0.0024430472 0.0013663685 0.0055400115 0.0069431495 -0.002328038 -0.0029268211 0.0031095725 0.0016977033 0.004391132 0.0038314245 -0.0037062983 0.0022231091 0.00050046935 0.0055856514 0.00016200916 -0.0033451375 -0.0012592288 0.0023427529 0.0043152813 -0.0019150117 0.0022722138 0.0022980913 0.00043817016 -0.0022274689 -0.00094415253 -0.007347018 -0.00044972185 0.0030134271 -0.0045099347 0.004966861 -0.004356532 -0.0028120219 0.00079764915 -0.0038308236 0.0035213197 0.0010264941 3.55815e-05 0.0011320614 0.0048385873 -0.0065316474 -0.0001414373 0.0018808834 -0.0014216076 0.0007845843 -0.002962632 -0.0013321938 0.00069646636 0.0024583405 0.0019449205 -0.0058046584 0.0013460366 0.0010974876 0.0035656122 -0.0042335577 -0.005830004 -0.0010642802 0.003160366 -0.0026815631 0.0012659263 0.0043408144
juros -0.0013822663 0.00025950448 -0.00076449726 -0.0024811476 0.0021636526 0.0037762353 -0.006939836 -0.0014573653 -0.0032671264 0.002144334 0.0028906877 -0.0047472613 0.0068217367 0.0022711959 0.0031180743 -0.009582348 -0.004704608 -0.0020559106 -0.0017705068 0.0017104964 0.0009920057 -0.0019101405 -0.0041246 0.0022313318 0.003176776 -0.0010976096 -0.009672732 0.0049608382 0.0014683341 0.0062751435 0.0063469345 0.007281916 -0.0010854627 0.00080003246 0.0016201274 0.0048976885 -0.002318696 -0.008438877 -0.00014946415 0.0035333897 0.0040438883 -0.005892787 -0.0014969299 -0.00082664203 -0.0018019978 0.0021724184 0.0018945512 0.0034284613 0.004208785 0.0028608092 -0.009582296 -0.0020654825 0.004050025 0.0025368452 0.0049719256 -0.002124666 0.0044319546 -0.0047088354 0.008237766 -0.0048082327 -0.0008905581 -0.0026174686 -0.00041087795 -0.009098774 -0.00370944 -0.003984957 -0.0036271052 0.0026940992 -0.007781936 0.0014832037 -0.0068796678 -0.0043567615 0.00034937568 -0.0012375091 0.00019696455 0.00052356924 0.006324157 -0.0043300632 -0.00059717434 -0.0072272304 -0.00072978076 0.002916436 0.0018910294 0.0024176172 0.003036915 -0.006631823 0.0053240173 0.0064711166 -0.005113072 -0.005350195 0.004065434 0.0028303652 0.0022940717 -0.004385284 -0.007263902 0.005832121 0.005071032 0.0030272692 -0.0020065575 0.002015658
crédito 0.003227599 -0.0033235673 0.0029746953 -0.0040572616 0.00034454797 0.00348634 0.002007802 0.0013534434 -0.0037646715 -0.0032309766 0.0030066492 -0.0028804075 -0.0008963364 -0.0047519747 -8.330359e-05 -0.008155054 7.957146e-05 0.0025071967 0.0033981185 0.0049675107 -0.0010159961 -0.00034009354 -0.0030381829 -0.0025751232 -0.0029027548 0.0012602578 -0.0057867854 0.0016041757 -0.002626447 -0.0027135625 0.0003374939 -0.00033876914 0.004111173 0.0052582785 0.0043076198 -0.00036745722 -0.0011260419 -0.0053880843 -0.0052676494 0.0063801734 0.0021386875 -0.0027690595 0.0041129612 0.0035492668 0.0022421244 0.0016448023 -0.004857892 0.0025989604 0.0049849693 -0.0047452073 -0.008430835 0.003983405 0.0022776027 -0.0012347723 0.004539534 -0.0029245445 0.0019445041 -0.0038199362 0.0059410697 -0.0068953093 -0.002105756 0.0053875647 -0.0013917144 -0.004343305 0.0014861644 -0.0027228475 0.0012629399 -0.0033886912 -0.0061758296 0.004244586 -0.0071693845 0.0008196187 -0.0009466305 -0.0001647213 0.0016454065 -0.0004238507 0.0012760113 -0.001605345 0.0007029998 -0.004397829 -0.0035260464 -0.0023892806 0.0022819156 0.0055653844 -0.005693698 0.0025453342 0.0064079277 0.006958746 0.001427489 0.00057713094 0.0055781133 0.00060795463 0.0056354417 -0.0013085525 -0.0057464307 -0.0006929619 0.0032571026 0.0025792262 0.0042778696 -0.004276297
valor -0.0053901104 -0.0038845534 0.003530937 0.0026174758 -0.006058595 -0.0026721552 -0.0063594645 -0.005928769 -0.001956086 0.00014246855 -0.0027019144 -0.008163441 -0.00077255536 -0.003172902 0.005334132 -0.010291967 -0.004586489 0.0033339008 0.0003085104 0.0022262365 -0.004222695 0.00033812708 0.002109831 -0.005506478 0.0049862955 0.0053455 -0.006843872 0.002365522 -0.003135706 0.0072432063 0.0042694923 0.00016930696 0.002871223 0.0014692682 -0.00477977 0.0035531295 -0.006200872 -0.0029336682 0.0025355718 0.008131103 0.0049974993 -8.880383e-05 -0.0020093308 0.0068145297 -0.002705233 -0.0023919144 -0.00066584756 -0.003813066 0.004008566 0.0028822855 -0.00899613 0.0027024767 0.001336391 0.005887611 -0.0002670957 -0.005048029 0.00370929 -0.0036814965 0.0056669847 -0.01162175 -0.002435785 0.0054619038 0.004779958 -0.0052865422 -0.009687426 -0.008706798 -0.00035697865 0.005208184 -0.007790307 -0.0017853426 -0.00027725648 0.004864402 -0.0006352171 0.0034631041 -0.002285785 -0.002546127 -0.0019951526 -0.00025320225 0.0031992986 -0.0041426597 -0.009511875 0.0014653292 -0.0032657068 0.0019658105 -0.0013156238 -0.0019250931 0.0063331514 0.006006543 -0.00721186 0.0017137647 -0.0020649643 0.005791178 0.009584854 -0.0014924094 -0.0015640674 0.0062298444 0.0065244064 0.0026195548 0.0025986466 -0.0042332597
dinheiro 0.00019729769 -0.0038257327 -0.0010938189 -0.0023209874 -0.004802799 0.00044947624 0.0015784925 -0.006186886 -0.0061878646 0.0011325298 -0.0039947205 -0.006073995 0.0015008748 -0.005223909 0.0050326893 -0.002323759 -0.0035295128 0.004175866 -0.001040967 0.0059487526 0.001728466 0.0015642765 0.0006821839 0.0025806252 0.005568634 0.0011441277 -0.0018015463 0.0076022022 -0.0022932463 0.0066024894 0.0033425447 0.007230815 0.00012418319 0.00021190612 -0.004940021 0.0032837726 -0.009787077 -0.007813523 0.0009547547 0.0022473668 0.0062637688 -0.005880392 0.0040893103 0.002448211 -0.0035992588 0.002501237 -0.0050210194 -0.003757454 0.0067068287 -0.0040762555 -0.0072034765 -0.0037945677 0.0011741153 0.005807973 0.008510377 -0.0070547974 0.002655934 -0.0036557743 0.0011876205 -0.006601193 0.0013816437 -0.00054577977 0.003501357 -0.006083985 8.037677e-05 -0.0072215213 0.002200666 0.0023049952 -0.0004113929 -0.00096609467 -0.0020716102 -0.0021103036 0.0042798836 0.0011738293 -0.0005906827 0.0034650138 0.0056502167 -0.003636084 0.001373127 -0.008046477 -0.002113434 -0.006213074 0.0022150262 -0.0017305741 -0.0010261117 -0.0032394708 0.0007695219 0.0017804775 -0.0064248117 0.0018758029 0.0025826604 0.0053210533 0.003349002 -0.0001587465 -0.004576133 0.0046956046 0.005289658 0.004395899 0.0045654923 0.0019244308
pagamento -0.004008511 -0.0051323744 0.003683366 5.3209922e-05 -0.001129834 0.005041658 -0.0052618436 -0.0026213734 -0.0053486214 0.0003392336 -0.0033256137 -0.003998086 0.0029633332 -0.0004802612 0.0072919945 -0.0006123791 -0.00236679 0.002703542 -0.002872628 0.0019852044 0.0019608068 0.002228438 0.0021145681 -0.0014740403 -0.0035545607 0.00016088519 -0.0029318256 0.006971633 0.003971374 7.5760356e-05 0.0016613544 0.0061671785 -0.004330691 0.0040239426 0.0010247822 0.0037290845 -0.009778169 -0.0061291014 -0.0051532863 4.0987947e-05 0.002938225 0.001328732 0.0018548516 0.008153002 0.004532755 0.0043131444 -0.00250029 0.0022337544 0.0072237058 0.0019529467 -0.00952627 0.0012933066 -0.0014357935 -5.8067973e-05 0.0058701816 -0.0025550057 -0.0002338349 -0.0033695768 -0.000804919 -0.0077343825 0.0037276635 -0.0030060452 0.0057224697 -0.0060518663 -0.001716292 -0.0043695844 -0.0013731612 0.0039843605 0.001482701 -0.0015941698 -0.006975022 -0.004560172 0.0004402649 0.003939921 -0.0013588628 -0.004413077 -0.0015336077 -0.00064805406 -0.002692963 0.00035150704 -0.006135881 -0.0016435195 0.003715597 0.005673718 -0.005184102 -0.0023122006 0.0077109374 0.009726654 -5.7030276e-05 0.0016333896 0.0022645576 0.00013697872 0.0075332318 -0.0016349044 -0.0009244864 0.0029948922 0.00026693422 0.0036876989 0.00095063355 -7.5799544e-05
dívida -0.001089274 -0.001570824 -0.0035778414 -0.0044965777 -0.0040620742 -0.00013150695 -0.006351379 -0.0026316033 -0.0062502245 0.0026022932 -0.0014267786 -0.0035550357 0.0021572532 -0.005070239 0.0030345751 -0.00043615876 -0.00071590533 -0.0018656576 0.0023857662 0.0026221063 0.003053469 -0.0037038187 0.00042551142 -0.001858165 -0.0013387023 -0.00016318214 -0.008484629 0.0012888804 -0.0021576486 0.006075031 -0.002483632 -0.000679597 -0.0038432002 0.006352198 -0.0031795208 -0.0008563109 -0.007466844 0.0011140669 0.00023567301 0.00040376058 -0.0029645225 -0.004083177 -0.0018656865 0.0026122765 0.0049586 -0.0040800106 -0.0009013068 0.0053938087 0.0026756017 -0.0011551237 0.00036604915 -0.0006017348 0.004165777 0.0021462438 0.006512649 -0.0019007176 0.0024892783 -0.0017532273 -0.002155043 0.00039126788 0.000682246 0.0046478766 0.002520408 -0.0046623666 0.0006913523 -0.0054356814 -0.0013190188 -0.00051321194 0.0022816476 -0.0015644085 -0.0077490844 0.0034571486 0.0015610823 -0.0009782524 0.0040779263 0.00044920004 -0.0020261924 -0.0049514994 -0.00017572021 -0.005726076 -0.00065502146 0.0028185507 0.0031815192 -0.0037747307 5.4255643e-06 -0.004609554 0.007923636 0.0036869159 -0.006396219 -0.0006377994 -0.0016273899 -0.00038884176 0.0039154184 -0.0027782884 -0.0060305223 -0.00033192616 0.0029895143 -0.0016950807 0.0027270403 0.0017179761
r -0.0049039926 -0.0035253698 -0.0044762474 -0.0025434133 -0.00086916616 -0.00033151018 -0.0074790306 -0.006938273 0.0011717193 -0.00011603071 -0.0016144398 -0.0034892815 0.0061124503 0.0036191586 0.0026389612 -0.0022223296 -0.0051191477 0.00011115283 -0.0024186878 0.00497641 0.0001470038 -0.005346597 0.0036518932 0.0010412883 0.0056854463 -0.0016872111 -0.00602063 0.0059726774 0.0012324987 0.0058361134 0.00041674267 0.0051563727 -0.0011778077 0.0024150882 0.0032543929 -0.003096476 -0.008232974 -0.008194714 -0.0005099079 -0.0009677114 0.0031823078 0.0002740326 0.0017129962 0.002659384 -0.0011393153 0.005091782 0.0049481313 -0.00030813465 -0.0022371823 -0.00032598377 -0.00062892353 -0.005593858 -0.0011877379 0.003504954 0.008549487 -0.00033584796 0.0039506503 0.0030590773 0.0008880481 -0.0042909533 -0.00024830806 0.003681042 -0.0034959072 -0.0061325287 -0.007763134 -0.007475898 -0.0009985237 0.0012558377 -0.0030686173 0.00069103617 0.0007696452 -0.00094033236 0.002825783 0.0014440503 0.0008577184 0.0009836748 0.0062184893 -0.0017805898 -0.00084762607 0.0019465382 -0.0002945623 -0.0064389473 -0.0048154606 0.004734608 -0.00010490132 -0.00208067 0.0028200813 0.012115268 -0.0059292926 -0.00035986755 0.0056132465 0.0035333901 0.007689546 -0.0036437414 -0.0041414183 -0.0025464809 0.0015899192 -0.0021573242 0.0013241775 0.004206779
banco -0.0054676034 -0.0017203435 -0.004853202 0.0033906845 -0.0040367264 0.002317586 -0.0022053644 -0.008094285 -0.005544429 0.0056068925 -0.0016559532 -0.0056375787 0.002981856 -0.0045780963 0.0035029666 -0.0059777694 -0.0019615807 0.00226274 -0.0030511 0.003473195 0.005205976 0.0021638134 -0.0020271302 -0.004618018 0.0029673402 -0.0024714142 -0.010105817 0.0027412316 -0.004345856 0.0026550405 0.0017318474 0.0026332496 -0.0028276648 0.0035765911 -0.0031924536 0.0018337884 -0.008078704 -0.009431293 -0.0046625272 0.009494405 0.0019395209 -0.00561713 0.0051015015 0.006237931 -0.0038601595 0.0032946963 -0.00361249 -0.00406772 0.0033665264 0.0023018534 -0.0109561365 -8.0029e-05 -0.002288356 -0.00014331067 0.0010441602 -0.0065751155 0.0060049556 -0.0030179718 0.005804738 -0.012684409 -0.0015549565 -0.0032837773 0.0034755126 -0.009303381 -0.0094281025 -0.007205075 0.00033527054 0.0057364153 -0.0053106816 0.0049220007 -0.008060686 0.0033718948 9.617824e-05 0.0019017819 0.003729842 -0.0014168947 0.005880362 -0.0024032078 0.0026625067 -0.007517245 -0.009774882 0.0017532073 0.002146961 0.0031781064 0.0023976471 0.0022195857 0.005665181 0.010299962 -0.0055230046 -0.0059206244 0.0064725094 0.00060265925 0.01016323 -0.002755126 -0.0026371586 0.0025269396 0.0031878718 -0.0048810747 0.00656361 -0.0032908218
cartão 0.0017216373 -0.0009210595 0.004420079 0.003997609 -0.0026692252 0.0043557147 -0.006199113 -0.006574697 -0.0033472027 -0.0015673607 0.0003180191 0.0024080395 0.0064774854 -0.00288381 0.004937729 -0.0052786325 -3.104567e-05 -0.002644237 -0.006461592 -0.0020464822 0.0031490403 -0.0029700517 -0.0045712558 -0.00033383642 0.0033425852 -0.002896589 -0.0008056438 0.0054867635 -0.0001990997 -0.00051198533 -0.0034098476 0.00092770427 0.0028022034 0.0011476974 0.0040098396 0.0037507222 -0.0049163476 0.00084052887 -0.0024924148 -0.00089796126 0.0058113295 0.00014337378 -0.00311893 0.0043147276 0.0022091898 0.0012807345 -0.0024983443 -0.0036394438 0.0008759007 0.0016497588 -0.0074641844 -0.0011888772 -0.0011368622 0.004535081 0.0073780157 -0.0055794725 0.0021049853 -0.0015645508 0.0053222743 -0.0004303353 0.0030169385 0.0007966595 -0.0023589246 -0.0012500341 -0.0026574435 0.0017452907 8.726697e-05 0.0041273455 -0.0020668446 0.004213494 -0.0051919 -0.0048656235 0.0014006164 -0.0005304672 0.0015119434 -0.004585755 -0.00010499155 0.0020758782 0.0010401856 -0.0013657256 -0.0064615863 0.0032443882 -0.0046316795 0.0027287235 -0.006049717 -0.0018387531 0.0009006197 0.0064962786 -0.0007587513 -0.00010041909 0.0005986082 -0.002806395 -0.0005455661 -0.00081113336 -0.0039431066 -0.0011256775 0.0039172885 0.005002855 0.0020701888 0.0002863042
devedor 0.0010897192 -0.0029087302 0.0020902595 0.0010159317 -0.0069037084 -0.0002879468 0.0021208997 -0.00039136628 0.002944363 -0.0038410162 -0.002860296 -0.0010612076 0.0035384586 -0.0021949206 0.0038612701 -0.00088004686 0.002521617 -0.0018062973 -0.004506992 0.003968141 -0.003845372 -0.0014670788 -2.0897129e-05 -0.0030267478 0.003988314 0.0042112763 -0.007960471 0.001573183 0.0029228244 -0.0002959669 -0.0009964742 0.0053041177 -0.00035719934 0.0015318498 0.001350418 0.0024370959 -0.0083593065 -0.0053429483 0.00038260405 0.0015014778 0.0007637492 -0.004334292 0.0037236363 0.0031512002 0.000794761 0.0026855485 -0.00059817714 0.002487634 -0.0018999175 -0.0008052715 -0.00146797 -0.0040016766 0.001163449 0.0012816595 0.0068300725 -0.00318769 0.0061907293 -0.0018496321 0.00045152125 -0.0049386485 -0.00463621 0.0008599623 -0.0015873866 -0.0071251867 -0.005217887 -0.0045245513 -0.0007221134 -0.00075381214 -0.001416679 0.00055318564 -0.0023421978 0.00088093494 -0.0014743779 -0.003438374 0.0036211326 0.0018753645 0.00202664 -0.0039891717 0.00020740325 -0.0043410193 0.00078858464 -0.0027833763 -2.1055028e-05 0.00012313026 -0.0014671822 -0.003720062 0.0021855126 0.005373379 0.002010115 -0.0033803673 0.0006692251 -0.0005292553 0.004131119 -0.0043654377 -0.0068580015 -0.00095145963 0.003151455 0.0024758934 0.0038272482 -0.0023427196
empréstimo 0.0040445314 0.003572457 0.0039824108 -0.0043833815 -0.0030097084 0.0020895812 -0.0005024524 -0.002406305 0.0013031717 0.0013688437 -0.0048370296 0.00014329863 0.0034772626 0.0031945747 0.004398167 -0.004914345 -0.004257113 0.001111434 -0.0015820311 0.004310177 -0.002769368 -0.0041773175 0.0046007847 0.003616001 0.00563642 0.003578357 0.00036656714 0.0021846336 0.004275817 -0.0011787575 -0.00090553216 -0.00047007378 -0.0023103948 0.0042713094 -0.00096825627 -0.0028147236 -0.007053116 -0.0053080977 -0.0031605584 0.003994218 0.0031971312 0.0030156123 0.0016038893 0.0011145346 -0.0031986176 0.0035254357 0.00029664405 0.0021164287 -0.0012512438 0.0038736302 -0.0019296448 -0.0011007334 -4.905097e-05 0.0034826146 0.007520286 -0.00025788805 -0.00014723284 -0.004273245 0.0020544087 -0.0076597068 0.004572585 0.002386475 -0.003359088 -0.002995643 -0.00019785255 -0.0012375503 0.0014356131 -0.0013372258 -0.0053060916 0.004946694 -0.006085096 0.00033512575 -0.004237123 0.0028607456 0.0009908645 -0.001607775 0.0055211 0.00046942418 -0.0044396273 -0.0040019685 -0.0027014562 -0.003782987 -0.0033142758 0.0030628014 -0.0010582025 -0.0010274572 0.0056437915 0.0074447333 0.00093619793 -0.00557533 -0.0016577533 -0.0006679498 0.007115643 0.0020242643 0.0011730089 -0.0033212297 -0.0023723214 -6.494549e-05 -0.0016761527 0.0030728732
consórcio 0.0011493829 0.0013924736 -0.00030196103 0.0018187696 -0.00589816 -0.0027604192 -0.0014007977 -0.004258183 -0.0005196593 0.0013930815 -0.00319839 0.001788563 -9.0676316e-05 -0.00040281416 0.0069487076 -0.0031133736 0.002098897 -0.0024265738 -0.006778064 0.0038712884 0.003217537 0.003576397 -0.0016081284 0.0015777986 0.004575518 -0.0007073043 -0.00094926753 0.0076189497 -0.00013083502 0.005811101 0.0041980036 -0.0013464441 0.0044914614 0.002366923 -0.0029830185 -0.0028529079 -0.0012236433 -0.00059053744 0.0006488471 0.005220408 -0.0010189017 0.0028323138 0.0010756452 0.006282947 0.0040916526 0.00023241545 -0.0037739947 -0.00013782321 0.0058818576 -0.0035530757 -0.0062958812 0.0009542162 0.0036770208 -0.0016842671 0.004810146 -0.0064650388 -0.0015637844 -0.0026932852 0.0040479247 -0.010411943 -0.0020850385 -0.0013431653 0.00091963913 -0.0017057364 -0.0003373626 0.0006849273 -0.00019093898 -0.0030891858 0.0015062887 0.0029498732 -0.007346318 0.00027347406 0.0055059595 -0.0022168204 -0.0033581879 -0.0020996945 -0.0016887507 -6.664832e-05 0.0012836752 7.362461e-05 0.00041752198 -0.0042647966 0.00072114397 -0.0006730103 -0.003949814 -0.0058722813 0.0055960864 0.010029403 -0.004941647 -0.0033348526 0.0003554302 0.0041223182 0.0019648324 0.0027053605 -0.0068391063 0.0004935347 0.0027033319 -0.00055018853 0.0007743926 0.002942029
pagar -0.002690667 0.0009000229 0.002565435 -0.005634902 -0.0017411605 0.000232641 -0.0048195 -0.0051122354 0.0032992866 0.0022244654 0.0019341303 -0.0020566483 0.0051056305 -0.00068771554 -0.0020670255 -0.0019101398 0.0018591792 0.0016110281 -0.004844223 0.0014694663 -0.001219271 0.0041472274 -0.0040628263 -0.005186898 -0.0026856132 0.0012163988 -0.006777778 0.0030276887 0.00408789 0.0063935774 -0.0013647862 0.00469805 0.0014548919 0.003086521 -3.8235434e-05 0.0038850359 -0.0025894067 -0.008186089 -0.0028065285 0.0062792874 0.00027524948 -0.0046267905 0.005464331 0.0015878467 0.0025362023 -0.0046427567 0.0033323967 0.0052140537 -0.0005858879 -0.0018901672 -0.009055425 -0.0009654585 -0.0032303652 0.0070220977 0.0020743492 -0.0018145947 0.006852284 0.0033715542 0.0018042834 -0.009472423 -0.00042652167 0.0036842222 0.0028589712 -0.0054096067 -0.0027217723 -0.0006719464 0.00030410313 0.005658974 0.0006471211 0.002411306 7.689806e-05 0.0022385013 0.00011805112 0.0033519699 -0.0009864891 -0.0033184804 0.0052397205 -0.005484535 1.3321183e-05 -0.0026663702 -0.0021066382 0.0024372903 0.002288338 -0.0009829166 -0.00080775464 -0.005903272 0.0026848582 0.0035268667 -0.005080772 0.00024143126 0.0056823865 0.0044362755 0.000107783126 -0.002877328 -0.00071698974 0.0007537612 0.0064284382 -0.001160626 0.0056033423 0.0033974303
investimento -0.0023649442 0.002002595 0.004994846 -0.0009803217 -0.0044594198 0.00052759587 -0.0038964185 -0.0024262168 7.8725854e-05 -0.002406325 -0.0039918055 -0.001949912 0.004651886 -0.0049938173 0.00022056168 -0.0015325086 0.002551764 0.0038623814 0.0037352315 -0.0028167847 -0.0012131805 -0.0028989296 -0.0016329432 0.0039084954 0.004964272 -0.00061438227 0.0009931647 0.0012083004 -0.0008188329 0.0058394857 0.0031520496 0.004609056 0.0007513289 -0.0008133579 -0.0049909395 0.00021663564 -0.0035750777 0.00014483224 -0.00400099 0.003210021 0.0037645306 -0.0055887406 0.002616379 7.8931e-07 0.0021215428 -0.0010135954 0.0010505283 -0.0037938117 -0.001255586 -6.8180285e-05 -0.0053451415 0.0033812753 -0.002872239 -0.0002746866 -2.6522937e-05 -9.979657e-05 0.006169261 -0.0021181826 0.0064923633 -0.0039744303 0.0013468208 0.0017220359 -0.0031710211 -0.0024872501 -0.0045008217 -0.00028115168 0.005124928 0.00523757 -0.0020821884 -4.9351206e-06 -0.003646036 0.0022112161 -0.0042867134 -0.0012459646 0.0031134426 -0.0057212757 0.00027047706 -0.0049543646 -0.0017486111 -0.0053317975 -0.0072867144 -0.004986189 -0.00012899935 -0.0016882818 0.0027041384 -0.0042212536 0.0074287383 0.0038187841 -0.0019688224 -0.004972345 -0.0017285475 0.0031737094 0.0006762813 -0.0015021893 0.0026647234 0.0057628993 0.006254076 3.785978e-05 -0.00072285475 0.0045041214
cheque -0.0012260252 0.0038062439 -0.0028497868 0.00024530632 -0.0013475408 -0.0006643697 0.0010417647 0.0019761638 -0.003599826 0.0009992333 -0.005557824 -0.0033683109 0.002795558 -0.0054218965 0.0042444356 0.0007877808 -0.00063352933 0.004202278 -0.006376091 0.0011218645 -0.001961978 0.004289671 0.0046258387 -0.0008349109 0.0017260641 -0.004193824 -0.004771594 -0.0018699722 -0.0031230852 0.0011155216 0.0013543887 0.004517327 0.004795128 0.0047574756 0.003149281 0.00070382585 -0.0006614056 -0.00607319 -0.0042268313 0.0052062795 -0.0026963446 -0.004339392 0.00014993176 0.0044225324 0.0033696329 0.0037828519 -0.0010305742 -0.0009237992 -0.0020616935 -0.0036855277 -0.003935052 -0.0025074317 0.0019472245 0.005798044 0.0026599567 -0.0062248535 0.0050397576 0.0011215352 0.004997993 -3.768047e-05 -0.002619131 0.005230281 0.002368459 -0.0015290894 -0.007183649 -0.0076913116 -0.0019908682 0.003231961 -0.0037465252 -0.002774219 -0.0032982053 0.00067858654 -0.0009275888 -0.002877495 -0.0037588952 -0.000932124 0.0023444572 0.0041455645 0.003999764 -0.0023281767 -0.0023278682 -0.0048672175 0.0036139176 -0.0014578544 -0.001280933 -0.005704694 0.00889783 0.008760804 -0.002096776 -0.0002696754 -0.0025704561 0.0005659355 -0.0005511996 0.0033490313 0.0016678696 0.006799907 0.0068970304 2.7116621e-05 0.002880252 0.0047269394
saldo -0.0015611242 -0.0033090801 0.004843281 -0.004160177 -0.0041693076 -0.0005209093 -0.0018078837 -0.0059868526 0.001909104 0.0053589726 -0.004831952 -0.0027315724 0.006119941 0.0018371692 0.0043169055 -0.0017102967 0.002298765 0.0037269408 0.0026808472 0.0035955848 0.0011315668 0.001394283 0.0033557683 -0.0006223379 5.529124e-05 0.0012771974 -0.003219403 0.004118401 -0.0008839742 -0.0017846444 0.00480568 0.002962452 -0.002090812 -0.0012263379 -0.0014582264 0.0040592505 0.0013819884 -0.0044426667 -0.0031161313 0.0007419207 -0.0011221746 0.0021138126 0.0031361168 0.0040207556 0.00032989192 0.0035348576 -0.0008016152 0.0022605564 0.0040960517 -0.0028061324 -0.003980229 0.002281659 0.0023066122 0.0024655787 0.00473308 -0.002673192 0.0055278665 -0.0059726764 0.0037468027 -0.0024973364 -0.0025980712 -0.0038007696 0.0021782578 -0.0070788926 -0.004492259 -0.006472227 -0.0038099338 -0.0034729792 -0.002961649 -0.0015907418 7.1020644e-05 0.0037236877 0.0021243745 0.0019716928 -0.004839269 0.00071813713 0.00359127 -0.0053896667 -0.0038006518 0.00025470927 -0.001798053 -0.0036646472 -0.0034807578 6.447336e-05 -0.00440953 -0.004526335 7.052413e-05 0.006142734 0.0017185243 0.0015751721 0.0037582405 -0.0013953705 0.0061503462 -0.0014193765 -0.004048902 0.005779721 -0.0012252175 -0.003232323 0.0056891767 -0.002089244
pode -0.005997626 0.0027349521 0.0046186615 -8.392112e-05 -0.004277666 0.0051827515 -0.0035050197 -0.0033247692 -0.0010618897 -0.00052761036 -0.0029131842 -0.0042773667 0.0059647225 -0.0061666006 0.0035066435 -0.008571725 -0.0027088749 0.007233022 -0.0064185383 0.0051801205 6.893825e-05 -0.0036785568 0.00254238 0.0031280615 0.0002811495 0.0015468409 -0.005430295 0.0035285228 -0.004036798 -0.001081094 -0.0020767662 0.0062613655 0.00041649284 0.0064818785 0.0028383313 0.003635405 -0.008381177 -0.003271865 -0.00566315 -0.00054485153 0.0051775235 -0.0047357827 0.00040567774 -0.0004243219 0.0020227444 -0.0014858907 0.0032758028 0.0004253778 0.004061541 -0.0033762483 -0.0021676573 -0.0026142006 0.003311481 -0.00040836082 0.00016787005 -0.006699742 -9.622219e-05 -0.0007191752 -0.00023589756 -0.0070116646 -0.0032812 0.004136891 -3.1064403e-05 -0.006344778 0.0005039014 -0.00948359 0.004610266 0.0058779754 -0.0036113046 0.0013987034 -0.003562876 -0.0042381 -0.0012662238 -0.0010764461 0.00045681334 -0.000114788796 0.0069199186 -0.0041856254 0.002370803 -0.007419417 -0.007139805 -0.0023646464 -0.00056797423 0.006053464 -0.00530078 -0.0011604659 0.010621859 0.009037267 -0.006232367 -0.0044279727 0.0017545406 -0.002778511 0.0027879833 0.0026390362 -0.0070322645 0.0048202965 -0.001612315 -0.0009814362 0.0039100754 -0.0013959608
conta -0.0026193077 -0.0040836493 0.004932256 0.0003170876 -0.0044062915 0.0016501812 -0.00086736865 -0.0067708325 -0.002449793 -0.0010405342 -0.005247894 -0.004037549 -0.0023540428 -0.0058674365 -0.0014677348 -0.0072034122 -0.0014825955 0.0035220454 -0.0014338549 0.0018614456 -0.0009890613 0.0040181717 -0.004937429 0.0031114938 -0.0026440853 0.0020596439 -0.0078469 0.006612671 0.0024811127 -0.0012201128 0.006379637 -0.0007129571 0.0014119188 0.003854104 0.00038695202 -0.00028066523 -0.0024003459 0.00051482115 0.0012465699 0.00284903 0.0022332564 -0.0050464096 -0.0025845207 0.0066981846 -0.0038633372 0.0027792898 0.0042299917 -0.0033470846 0.00427691 0.0020551896 0.00053141784 -0.0046385764 0.0018137186 0.006201691 0.008536634 -0.0014009996 -0.0019859325 0.0021825212 0.0042777467 -0.0072478927 -0.0047537 0.0007847343 -0.0013932929 -0.007931315 -0.00662315 -0.00083973684 0.0047255084 -0.0017101882 0.0005744391 0.00043570757 -0.0005211593 -0.0037806304 -0.0016362465 -0.0009397566 -0.00024938345 -0.0017726559 0.0018304613 -0.0010558085 0.003982866 -0.0013835604 -0.004599588 0.0023439738 -0.002618013 -0.0022450497 0.0023769906 -0.0021584465 0.005735816 0.009582904 -0.00012535109 0.0037702296 0.00031649854 0.0049263495 0.008768164 -0.0015949293 -0.0046629333 0.0024986642 0.0008887931 0.0002131535 -0.00069215236 0.0038984583
cliente -0.00091821066 -0.00027858382 -0.002066324 0.002450639 0.0014426982 0.0019379394 -0.0022956748 -0.006913351 -0.000104782746 0.00044777695 0.0027948935 -0.0076450105 0.0072626425 -0.00055688166 0.0023512817 -0.00037499276 0.0035441888 0.0062683737 0.0025040284 0.001192583 -0.00037195967 0.0005301615 -0.0034742788 -0.004617271 0.005814476 -0.002102666 -0.008278257 0.0036721271 0.00047807302 0.0012313027 0.004893411 -0.0015846548 -0.0009803391 0.002101617 -0.0055018044 -0.0031863614 -0.0094875 -0.0011640133 -0.0039555538 0.0064860275 0.0067789205 0.0030486453 -0.0010503795 0.0025242413 0.0045100823 -0.004557677 -0.0011754034 -0.0019079967 0.0012567833 0.0009119004 -0.0044685244 -0.0040655565 -0.0007973353 0.0014813002 0.008157794 -0.0041630287 0.0018644122 -0.0021608938 0.0076480615 -0.0028896872 0.0018189106 -0.0025784858 0.0032093234 0.0008594225 -0.006952912 -0.00789094 -0.0015954118 0.00557651 0.0017471872 0.0039092987 -0.006933584 -0.004754624 0.002258528 0.0008612746 -1.9840913e-05 -0.00038309663 0.0020183867 0.0027614427 -0.00339523 -0.00091767684 -0.007396704 -0.0043578665 -0.00432773 0.0041917088 -0.00095537916 0.0012302165 0.003559895 0.00794563 0.0021461009 -0.001235286 0.00029528802 0.00094439194 0.0049860077 0.0033905911 -0.0073389383 0.0066165174 0.0048327306 0.005047576 0.0047111115 0.0021455097
mês -0.00503959 -0.005385496 0.0014886733 0.0014377479 -0.0033666734 -0.00058621325 -0.0053262603 4.254929e-05 0.0025636905 0.0042287954 0.000779614 -0.006319237 0.0035457711 0.0013199397 -0.00064392516 -0.00565122 -0.004281043 0.0070534493 0.0024320604 0.006467853 -1.2517327e-05 0.0018187754 -0.0023910382 -0.0027735927 0.0028680933 0.005359545 -0.0032607368 0.0072509847 -0.0026038117 0.0011138609 -0.0011779408 0.0064481236 -0.0026019244 0.0040272065 -0.0013201798 0.0007849759 -0.00858029 -0.0039440626 -0.0012144882 0.006508863 0.004848794 0.0007121121 0.0011062879 0.002394774 -0.0007828046 -0.0042386763 0.00065903616 -0.0028956614 0.0014799669 -0.00068561203 -0.0061722114 -0.0033058296 0.005120161 0.003457885 0.004566606 -0.00559622 -5.384065e-05 -0.001391882 0.0047790855 -0.0074192192 0.0008331585 0.0040045213 -0.0037209226 -0.007696124 -0.0057319063 -0.00474957 -0.0016534049 0.004661683 -0.0033354752 0.0031345685 -0.0018126784 0.0045263832 0.00115338 0.00091213617 0.0020541106 0.0009946028 0.005244563 0.00323689 -0.0045933034 0.0005758564 0.0011048178 0.0034402155 -0.0012154967 -0.0020636918 -0.0022192844 -0.0051818867 0.009143377 0.0070230193 0.0012336031 0.0004548801 0.001319694 -0.000384242 0.0011294705 -0.00088287547 -0.0024732854 0.0010627738 -0.0009331897 0.0039500883 0.0019690574 0.0026424935
conta-corrente -0.0043326085 0.0021874895 -0.0009074289 -0.0032005936 -0.0009906569 0.0021861566 -0.004705122 0.00048442435 -0.0040174965 -0.00019342086 -0.0045497306 0.0014730414 -0.001872895 0.0022123582 0.0050990283 -0.007309417 -0.0025716505 -0.0013579894 -0.005647601 0.0029048892 -0.0024022192 0.0033104257 0.0012260148 0.0032274642 0.003176258 -0.0003636652 -0.0013293264 0.0065857754 0.002558984 -0.001083877 0.005232583 0.0047585946 -0.0015135042 -0.0028160575 -0.0033299415 -0.001031599 0.0006030715 -0.0074477345 0.0009199043 -0.0012696203 0.0060297847 0.0013099322 -0.002096605 -0.002284136 0.0052049486 -0.0040798592 0.0012278714 0.003610895 0.0027341729 -0.004123647 -0.007463315 0.0040193736 -0.00014311157 -0.0010071455 0.007349621 -0.002540377 0.004610282 -0.0002931493 0.0013466501 -0.0003316014 0.00028123058 0.0039908155 0.0023944834 -0.0040718955 0.0011855924 -0.0020258923 0.003447787 -0.0038899006 0.0012785925 0.002283095 -0.0010921964 0.0012486114 0.004607728 0.0040974277 -0.0006743852 -0.0050637387 0.0040106517 0.0033637239 0.0008343018 0.0016913683 -0.00018155787 -0.0005785427 0.00016593513 0.0012671575 -0.0056456006 0.0033561753 0.0023435585 0.009006608 -0.0022854249 -0.0036760475 0.0043503204 0.0026003264 0.0037606189 0.0011852465 -0.006393376 0.00010232215 -0.00075245014 0.0019758672 -0.0031306604 0.004559547
poupança 0.0030437328 -0.002021272 -0.0034843504 -0.0018493286 -0.0035539554 0.000114237686 -0.000378648 -0.0012504025 -0.0006072109 0.004758156 -0.0018417788 -0.0048228293 0.0048073777 0.0013586577 0.0043376344 -0.0068330816 0.002770368 0.006332713 -0.0045372653 0.004578515 0.00021278388 0.0028867782 0.002894322 -0.0008125455 -0.0013153116 0.0031055019 -0.005492838 0.005397972 -0.0024559947 -0.0011189408 -0.001670597 0.0046036337 -0.0029432978 0.0025034563 -0.0011265108 -0.0002149825 -0.008164758 -0.0037770504 0.0021825212 0.0053677433 0.0028120445 0.0011702654 0.0023631006 -0.0027345836 -0.0012659966 1.3319037e-05 -0.0018394723 -0.00059025653 0.0046292176 -0.0017828194 -0.008601727 -0.00042413332 -0.004510634 0.0061638784 0.006052472 0.0020451874 -0.00088439917 -0.0056615043 0.005493954 -0.00804572 0.00050109014 -0.00069204986 0.0026677307 0.00037653465 -0.0029454443 -0.008834262 -0.0002200452 -0.0014698688 -0.003814589 -0.0023659125 -0.006949814 0.0034808791 0.0020767828 0.00037788332 0.00040957783 -0.0036254323 0.0054351264 0.0044396985 0.0029356235 -0.0076750647 -0.006032048 -0.001984472 0.0021916018 2.6343561e-05 0.0029132639 0.002734466 0.0006068677 0.009577545 0.0009150203 0.00060998724 0.0009972008 0.00047889396 0.006122939 -0.0023011847 -0.0055685346 -0.0019737799 0.0068270885 -0.0035406111 0.0031734477 0.0044876803
débito -0.0012489561 0.003816832 -0.00319889 0.0028117266 -0.00508122 -0.0041170497 -0.0038569174 -0.0025555494 -0.0040921033 -0.0016849008 0.0028813442 -0.0054670963 -0.00023489897 0.0016872535 0.00053978217 -0.0073140278 -0.002947902 0.003432503 0.0030141156 0.00043383034 -0.0029939513 -0.00073871954 0.0017196424 -0.00069253467 -0.0016222901 0.0033732445 0.0009820063 -0.001862353 0.0043286756 0.0057013785 -0.0036972587 0.0035825272 0.0014701367 9.5464435e-05 -0.0026462937 0.0045791613 -0.0033208977 -0.0051232735 -0.005411474 0.0038168528 0.0036389888 0.0032908048 0.0010649705 -0.0016625611 -0.0039498215 -0.0048626624 0.00092887593 -0.002089882 -0.0005766157 -0.004848983 -0.0026530065 -0.0034431408 0.0037020892 0.00079319696 0.004840475 -7.0030714e-05 0.0016328832 -0.0039481716 -0.0027779343 -0.0069056335 0.0045158775 0.00427475 -0.0029860705 -0.0008923006 -0.0042038434 -0.007011672 0.0046287146 -0.0015596921 0.00227336 0.0029001713 -0.006144194 -0.0024485413 -0.000608695 -0.00086349354 -0.002147331 0.0012173787 0.0053929724 -0.0025575159 0.005248989 -0.0012692009 -0.0004932027 0.0025671157 -0.0013604547 -0.003273498 -0.0006257601 -0.0042575286 0.008066862 0.004752237 0.0034711817 -0.004131478 -0.0005182889 0.005316994 0.0063974233 0.0019126493 -0.0036344342 0.0032779197 0.0066280314 0.0008085691 0.003157847 -0.0028124375
ser -0.005761751 -0.00488669 0.0007448939 -0.004195157 -0.001990278 0.00395728 -0.002795163 -0.0068582636 7.927903e-05 0.00051660975 -0.003948452 -0.0027712898 0.006940852 -0.002333476 -0.0009316058 -0.0068689776 -0.0042925817 0.005108435 0.0022565501 0.0029619855 -0.0013163342 0.0011055068 -0.0024290876 -0.002221473 0.0018413684 0.0049356404 -0.005583285 0.0035707427 -0.0053418903 0.0063188747 0.0019146746 0.0076247277 0.0033231885 0.0027243963 0.00046212773 0.0049592652 -0.003495498 -0.008179378 -0.0044930875 0.0037658415 -0.0008603757 0.0022711977 -0.001184417 0.0010107389 0.0021983054 0.003865918 0.001526998 0.0036383348 -0.0026672212 0.0018475219 -0.004837865 -0.0024057173 -0.00012152252 0.001753276 -0.0008021286 0.00013193606 0.0038110653 -0.0025393749 0.0058785775 -0.0046954975 0.0016860021 0.000429873 0.005412425 -0.004932267 -0.007026801 -2.6093174e-05 0.0038930334 -0.0008102989 -0.0041699414 -0.0045889528 -0.002945746 0.00484619 0.0053752824 0.0031317435 -0.0024863263 -0.0023119694 0.005153375 -0.0016100983 0.0027592042 -0.004486676 -0.005714471 -0.002435213 -0.0027037633 0.0024468945 0.002182068 -0.0023453252 0.008395075 0.010110001 -0.0010802645 -0.0028039857 0.002796881 0.004559292 0.0040361327 0.0017242639 -0.0017535591 0.0019599923 0.003434349 0.0043296376 0.002089419 -0.0018896096
pessoa -0.0016103811 0.0017767457 -0.0014403366 0.0034609865 0.0016744736 0.0008057144 -0.0013710627 0.00074834825 0.0031460016 -0.0034440926 0.004180797 -0.0027960297 0.0030828612 -0.004124923 0.001397013 -0.005763787 -0.00049497036 0.00025269366 -0.0006166388 -0.0008235019 -0.0021699192 -0.0020710293 -0.0009616036 -0.00445592 0.005202089 0.0011450204 -0.005686915 -0.0015986466 -0.00059549516 0.0015287764 0.002455858 0.0016381431 0.0011823309 0.0010865177 0.001974315 0.0013407054 -0.0046936558 -0.0025941003 0.001639063 0.0078002517 0.00046182002 -0.004191759 0.0054607335 0.002842887 -0.00019985893 -0.00086487964 -0.0024831116 0.0053370995 0.0024232606 0.0035471234 0.0008499494 0.0022654017 -0.0026310377 5.9308157e-05 0.0043900576 -0.004701012 0.005746982 0.002783119 0.0070062517 -0.008270301 0.001837605 -0.0023639747 0.00012220352 -0.0057493267 -0.00289661 -0.003504072 0.0024705105 -0.0024786505 0.0016506099 0.0031954707 -0.0056353337 0.00091426796 -0.0013084608 -0.002164514 -0.0010637209 -0.0040662326 0.0039866427 -0.00069982023 0.00093554653 -0.0005491707 -0.0035281114 -0.0037612037 -0.0010234556 0.005329419 -0.00028609365 0.0009052583 0.006962267 0.0052056406 -0.0032753495 -0.001457967 -0.0011345693 0.002006287 0.0077595687 -0.0048398348 -0.0067091775 -2.8724593e-05 0.006412206 0.004118544 0.0016110417 0.0026171508
financiamento 0.0024650788 0.0017061784 -0.0019575157 0.0042095934 -0.003310847 -0.0026574256 -0.0032416282 0.0009224903 0.0037238465 -0.00051823875 0.0034414341 -0.0025746727 0.0043021915 -0.005109354 0.002255934 -0.0067683225 -0.003319147 -0.0023133494 0.00044834748 -0.0026025006 0.003119074 0.0033588014 -0.004904384 0.0006507108 -0.0018014805 -0.0015641585 -0.0073109777 0.0045209792 0.0002477494 -0.0034802502 0.003150448 -0.002987881 -0.0004856176 0.004946938 0.0016764663 0.0019595388 -0.0045491485 -0.006913037 -0.0015093033 0.0054302034 0.0039629675 0.0040494776 0.00043391983 0.0030953349 0.002874125 0.004078493 -0.0026369547 -0.0036337825 0.0044524902 -0.001118103 -0.0043989057 -0.0024376726 -0.00038140736 0.0025613736 0.0012247423 -0.0041311523 0.0036418806 0.0022312624 0.00540866 -0.006847108 -0.0048188176 -0.00016309888 0.000666623 -0.0045532705 -0.0052236626 -0.0075419643 0.0015409167 0.0022125614 -0.0016136399 -0.00092211424 -0.0034738819 0.00016797734 0.0011153264 0.0037822525 -0.0035198117 0.0007831076 2.332774e-05 -0.00067093235 0.004731919 -0.0067778705 -0.0051811994 -0.0029006805 0.0050692563 -0.0029221235 -0.0032110284 -0.0022736061 0.0024846834 -0.0003432129 0.0013524789 0.002364232 0.0017945078 -0.0021559827 0.00075323076 0.002485008 -0.00264607 0.0016956681 0.0042223027 -0.0022267408 0.00036943436 0.0016178617
taxa -0.004185126 -0.0012227905 0.0027733666 0.0017990329 -0.0036238702 -0.0026770076 -0.004714973 -0.0016983678 -0.0037249916 0.001985655 -0.0007749569 0.0007889596 0.00013618816 0.0013959528 -0.002202876 0.0009714832 -0.0015513755 0.00023594974 -0.0038273872 0.004872507 0.0048087398 0.004668531 -0.001023162 -0.0035039585 0.0018421139 0.0052213473 -0.002640236 -0.0009562662 0.003021804 0.005419195 -0.0024143758 0.0058361986 3.707053e-05 -0.0008529601 -0.0029999523 -0.0003471664 -0.0070525324 -0.002755835 0.0010385432 8.875919e-05 0.0070116264 -0.0032708251 0.0009522592 -0.0005820902 -0.003751783 -0.0014145003 0.0033620181 0.002680388 0.005125567 -0.0015019474 -0.0016292505 -0.0037093018 0.0020393224 0.0034549928 0.0032089194 -0.0072711105 -0.00070998626 -0.004491011 -0.0016805886 -0.0011546618 -0.00084137917 -0.0038372276 -0.0017870757 -0.0025590751 -0.0058642724 -0.0073564947 -0.0017885247 0.0004969207 -0.002456692 0.003957169 -0.0058783735 -0.0024511025 -0.00088066194 0.0045276294 0.0045234645 0.004149206 0.0056381384 -0.0032369632 0.0010572356 0.0021014567 -0.0017798875 -0.0012708016 -0.0024102053 -0.0016483217 0.0035894725 -0.00086199585 0.006766487 0.009407159 -0.00063331623 -0.0011011071 0.004820768 -0.0023819837 0.001775204 -0.0025589098 -0.0009721014 -0.00048533347 0.00028406904 0.00074084976 -0.003059272 0.003236078
00 -0.0008895133 0.0040136552 -0.0047230935 -0.003694019 0.0016478703 0.0005705263 -0.0061620963 -0.0033366426 -0.003805764 0.005905585 0.00044230983 -0.0012078937 0.00051233964 -0.0003734468 0.0024867589 -0.004006896 0.0041193 0.0064533264 -0.0045684646 -0.0012628551 0.0026620866 -0.0040615634 0.0035017421 0.0025314258 -0.003056886 0.00065135217 -0.0074598272 0.0024953613 -0.003901193 -0.00088560337 0.0041645207 0.0071681277 -0.00360956 0.00037702202 0.0030518877 -0.00080434815 -0.0021386873 -0.005537455 0.00040494837 0.005461504 0.002400161 -0.0019665326 0.0027352152 0.0027030047 0.0037847953 0.0020530398 0.0017499328 -0.00035310662 0.0063565806 -0.0029198765 0.001009926 -0.0033714059 0.004541693 0.0054268483 0.0072993496 -0.006958846 0.0067561353 -0.000114004884 0.0013463844 -0.0022464036 -0.0046089836 0.0023382483 -0.0010884112 0.00041006133 -0.0066111265 -0.0029715574 -0.0040247054 0.0054665827 0.00040341995 0.0036202176 -0.006814252 -0.0041866377 0.0048012603 0.0053320364 -0.0045116204 -0.00226594 -0.00071321265 0.0036332954 -0.0025325753 -0.004082244 -0.005585027 -0.0062660957 -0.00446926 -0.0024609263 -0.001044116 -0.0060791303 0.008748759 0.009732335 -0.005111362 -0.004041161 0.0029044216 -0.00062095636 0.0041334806 -0.0010149688 -0.003485574 0.0065601105 -0.0014763656 0.0044300356 -0.0028106186 0.0011311892
grupo -0.00090643024 0.0045050867 -0.0023040194 -0.0011802703 -0.0014705755 0.0054061147 0.003070354 0.0015384927 -0.002480043 0.004461507 0.0036890733 0.00043377833 0.0024093573 0.0027946369 0.0025179412 -0.0032344405 -0.004713939 0.0023061475 -0.0013006877 -0.0018147342 0.004779572 -0.0027867742 -0.00030409644 -0.0028733173 -0.00023677133 0.0024357662 -0.004147879 0.0059286724 -0.0004512569 0.0062398487 0.004504546 -0.0010381549 0.0012930193 -0.0026478963 -0.0009412018 -0.0042326264 -0.005747105 -0.0066646547 0.002786051 0.003788666 0.0060751936 -0.0021930083 0.0057197553 0.0017193559 -0.00017303368 -0.0017921893 -0.0012734939 -0.0009482609 -0.003333336 -0.002357602 -0.003952651 0.0013860659 -0.0003850459 0.0010561348 -0.001814549 -0.006785069 -0.0010312109 -0.004882071 -0.0021808357 -0.000680081 -0.0050555374 0.0023950809 0.004959576 -0.006873647 -0.006014047 -0.0074749356 -0.0008651879 -0.0011158313 -0.0062207687 1.8943538e-05 -0.0068321475 0.0027321489 -0.0016308337 -0.0035915764 -0.0035853514 0.001180998 0.00494923 0.0042693573 0.0044203363 0.0023267365 -0.0018047348 0.0030241455 0.0018370675 0.0037911404 -0.004759987 0.0029680957 0.0031920308 0.007213816 -0.0023169424 -0.0016570389 0.0045265215 0.0020220235 0.00029512923 0.002326623 0.0012538206 0.0011880937 0.003652846 -0.0007940568 0.0015194973 0.0013499646
bem -0.0029780255 -0.0009444641 0.0045992844 0.0013776829 -0.00093799416 0.0044050077 -0.005292029 -0.0057910983 -0.006372733 -0.0024264343 -0.00423295 -0.0013376042 -0.0026628105 -0.00089958386 0.0063717645 4.1584986e-05 -0.005335748 0.00043453908 -0.003697915 0.0010130133 0.0042369757 -0.0015742084 0.0033247552 -0.0011918434 0.0055788923 -0.000921625 -0.0065702423 0.0006754707 0.0038788305 0.0034958737 0.004607727 0.0054295356 -0.0030339041 0.002058821 0.0030849625 0.0059371553 -0.0038713866 -0.0050974092 -0.0008352515 0.0025192194 0.0069974107 -0.003219339 -0.0028310618 0.0002611962 -0.0011698507 0.0029015676 -0.0021328407 0.0053528105 0.0026697195 -0.0018384779 -0.0040941476 -0.0017067952 -0.0025138108 0.0061224247 0.0059994236 -0.0059543084 0.000734188 0.0017404049 0.0047171093 -0.007648311 0.0034286506 -0.0026677165 0.0038897896 -9.254085e-05 -0.0046652905 0.0009415856 0.0045527276 -0.0036480918 -0.0028063336 0.0031770768 -0.004960312 -0.0006113307 -0.004025108 0.0019321024 0.00031418007 -0.0049337447 -0.0029744115 0.0019162644 -0.0030388446 -0.006046738 -0.0010272638 0.002746975 0.002857235 0.003768916 -0.0015175684 0.00079569226 0.0074036573 0.007920742 0.002519731 -0.0019132803 -0.0014516911 0.0059141996 0.0021455958 0.0008499522 0.0017967152 0.0038098001 0.0021206152 0.0033047711 0.0023246915 0.00082977506
financeira -0.0015941018 0.0009886586 -0.0044253487 -0.004332838 0.0010133486 0.0033321192 -0.002843853 -0.0035847456 0.0012656411 0.005169358 0.0036688696 -0.0044561317 0.0021005424 -0.0027568701 -0.0008490697 -0.00738298 0.002618518 0.0012768415 -0.0014488066 0.0018172843 -0.0030855876 0.0021681013 0.0005130875 -0.0016032786 0.0026959623 -0.0033165042 -0.0028932157 0.0006627592 -0.005263664 0.0061822557 0.00465948 0.0011896327 -0.0045848987 0.00016100747 -0.002162373 -0.0033089656 -0.00014538056 -0.0060502305 -0.004800714 0.0047607473 -0.0018092775 -8.869233e-05 0.0012962426 0.0037761666 0.00205444 -0.00066870276 0.0023295956 0.0007300125 -0.0017189494 0.0009612222 -0.00032271227 -0.0006662201 0.0026507457 0.0059553697 -0.00014472917 -0.004442405 0.0038872357 -0.0008394818 0.00655527 -0.0072661415 0.0041677947 0.002404308 0.0038676802 -0.007317985 -0.0038991387 0.0016228134 -0.0031891183 0.005682941 -0.0060617533 -0.003903712 0.0019615376 0.0035312714 0.0012542128 0.0057133758 -0.0013708398 -0.0016399196 -0.002186051 0.0004499454 0.0030336657 -0.006273165 -0.0011623544 -0.00545415 0.0020367296 0.0034364243 -0.0051591326 -0.0026911101 -0.00050444755 0.006700599 -0.00065041153 -0.004891583 0.005462566 0.006065037 0.00803364 -0.004176016 0.003315383 -0.00035438905 0.00012304746 0.0011716906 0.0039441516 -0.004778868
serviços 0.0038857472 -0.0033663814 0.00023856464 0.0039737336 0.0010415532 9.642752e-05 0.00033240643 0.0005743117 0.0019362542 0.005355913 0.00055668736 0.0027910653 0.0057811225 -0.0045040357 -9.488654e-06 -0.0034501874 -0.0007011531 0.0025796215 -0.0031853544 0.0047346107 -4.2712098e-05 -0.00044104748 0.0020368185 -0.0020775928 0.00565749 -0.00029390695 -0.00038097397 0.0027519679 -0.0053461143 0.004117973 0.0022561892 0.003509803 0.004936189 0.0045709442 -0.004605383 -0.0027570438 -0.0029901755 -0.0046081413 0.004089185 0.004420835 -0.0006617578 -0.004093226 0.0026829313 0.0025562416 0.0034514698 -0.0011588675 -0.00042152175 0.0021826858 0.003164731 -0.004726818 -0.0028738398 -0.004569155 0.0021832094 0.0042041214 0.0019594417 0.0014880694 0.001200723 -0.0045365966 0.0043671937 -0.0050096842 -0.002392891 0.00070098316 -0.0020458715 -0.0041191964 -0.0076095383 -0.00713805 0.0005493243 0.0026589197 0.001930829 -0.001136364 0.00057241344 0.0007127142 -0.000489745 0.0028440924 -1.4551738e-05 -0.0041590957 1.6926962e-05 0.0043363445 0.00045692836 -0.0008621332 -0.0071465727 -0.005349184 -0.00039032847 -0.003866152 0.0023183315 -0.0019435843 0.0054762927 -0.00068531465 -0.0019700222 0.0011840169 0.0026541385 0.0053578834 0.0067775217 0.00043780144 -0.0044294554 0.0048327055 0.0028741073 0.0017423582 0.0008482605 -0.0041454355
compra 0.0020441548 -0.0011687783 -0.0031764486 -0.0041874466 -0.0022205347 -0.0015421199 0.0016505345 -0.0039020623 -0.0009221415 0.003714567 0.0027531516 0.0017922145 0.0035104894 -0.0056806174 0.005501615 0.0015085316 -0.004541548 0.0038355698 -0.0038196805 0.0034011358 0.00033445228 -0.0013144269 0.0030137002 -0.00518926 -0.0020734973 0.0052708695 -0.00095825025 0.005623786 -0.0005454174 -0.0031363538 -0.0025958016 0.002831307 0.004085894 0.0018457357 0.0021748326 0.0037087162 -0.0062278295 -0.0058300206 0.0034592038 0.006644862 0.0031924683 0.0027678343 -0.000840389 0.0026359549 -0.0042401836 -0.002072789 0.0021463975 -0.0010928224 0.0030950194 -0.001523696 0.0008973892 -0.0057255677 -0.002358664 -0.0015599441 0.001050305 -0.004940497 0.00093637465 0.001450794 -0.00075522263 -0.0059594084 -0.0044347583 0.0016674472 -0.0027991487 -0.0023573437 0.0014560467 -0.007132622 -0.0016279578 -0.0035030232 -0.0038999037 -0.0018929484 -0.006694303 0.0019016505 0.0009929931 -0.0036212946 0.00370855 0.0036389844 -0.0017283383 -0.0037361204 0.0012228652 0.00093305955 -0.0038955207 -0.0017439113 -0.0026583816 -0.0011903201 0.0034033835 -0.0046641636 0.0013635748 0.0064415904 0.00025872735 -0.0050295386 -0.003895499 0.0040861918 -0.0006476503 0.002024494 -0.0026911509 0.0062267976 0.0053229877 0.003523032 0.00058637344 -0.00042383836
aplicação -0.0023296415 0.0044516674 0.0039400724 -0.0011298407 -0.0033788434 0.0012771909 0.0036975367 -0.006110064 0.0011936043 0.0005018744 -0.003606488 -0.005181121 0.0048118895 -0.00071451935 0.0012785966 -0.0012612643 0.0018106558 0.001541385 -0.0023289435 -0.0023770395 0.0044603813 6.3415464e-05 0.0012547582 -0.0037962832 -0.003750896 0.0010761095 -0.0013321883 0.0015711309 0.001291541 0.0040832004 -0.0012930802 0.0061250776 0.00035121077 0.005663459 -0.0016946773 0.0042088847 0.0008321674 -0.002207241 0.0040724976 0.0025675732 0.0016266227 -0.0011881954 -8.623734e-05 -0.00032824144 -0.001011079 -0.0044700294 -0.0038995985 0.0015168214 -0.0014391104 -0.0029061746 -0.0051205843 -0.0010579064 -0.0033993847 -0.0022662878 -0.00079276774 -0.004100003 0.0002797178 0.0011895688 0.0033260619 -0.007475859 -0.0030067782 -0.002628519 -0.0026310058 -0.004410385 0.0029810786 -0.0049109315 -0.004370537 -0.0010119752 0.00077727897 -0.0035156843 -0.0050526927 3.6146434e-05 -0.0043307333 9.94685e-05 0.0020418067 0.003739397 0.00065781607 0.0016590494 0.00020246823 -0.0054959916 -0.0010870094 -0.0005310788 0.005066164 -0.0012100644 -0.0033010931 0.0028658493 0.00507346 0.0051462906 0.0015073849 -0.004259165 -0.0033242777 -9.881229e-05 0.0069835037 0.0032668093 0.0028254958 -0.0035626455 0.006103273 0.0037646105 -0.0004394495 -0.00071519724
000 -0.005185265 0.0011711351 -0.00063505996 -0.004247906 -0.0041487203 0.0005787353 0.00272032 -0.0066092676 -0.006017068 -0.0004564136 -0.0013811057 0.00036680253 0.001262164 0.0030913907 0.004806401 -0.007941203 -0.0037728627 0.004126154 -0.004244804 0.0024817516 0.0014615773 0.0015826314 -5.2484396e-05 -0.004050627 -0.0040440643 -0.0030055651 0.00020679005 0.007380915 0.00060847885 0.0052912184 -0.0028861624 0.004178759 0.00077111035 -0.0033257029 -0.0026221147 0.0052952883 -0.007140054 -0.0014150274 -0.002925706 0.0076123714 0.0016614804 0.0023463662 0.005962414 -0.0026103198 -0.00070100854 0.0031021626 0.0021478147 -0.001329229 -0.001980702 -0.0010286839 -0.004860899 -0.00084934966 0.0013377987 0.003846187 0.004170524 0.0021338833 0.0068180575 0.00013687547 0.0056965495 0.0008003297 -0.0039673843 0.00507231 -0.0029316912 -0.0069547775 -0.007081094 -0.0021448939 -0.0026978843 0.0039748675 -0.0043057785 0.0019164953 -0.0020203486 0.00021648993 -0.0026644343 -0.002628643 0.0013863862 -0.005465283 -0.002405706 -0.0018018703 0.0008076789 0.00043139115 -0.0030078865 -0.00527085 0.0038559942 -0.0035036146 -0.005282282 0.0022489543 0.0020783755 0.004980693 -0.003873444 5.4489246e-05 -0.0022390971 -0.001299518 0.006888729 0.0009668222 0.0011373932 0.0043892777 0.0039097667 -0.00432471 0.00083710114 0.0038174714
credor 0.0027878159 5.6193007e-06 0.0020231141 0.0024209006 -0.005881141 0.0038563923 0.0029227708 -0.0010861104 0.0007535287 0.0020819718 0.0036356796 -0.0019944964 0.0013311101 -0.00251386 -0.0024640951 -0.0044627935 0.0035336718 -5.2939367e-06 -0.0055888137 -0.0011330119 -0.0011525041 -0.0035495723 -0.00409625 0.003452273 -0.00084080064 -0.0021068507 -0.0040170583 -7.1839268e-06 -0.0011404321 -0.00010326772 0.004413993 2.152219e-05 0.0037467899 -0.000358333 -0.0023219776 0.0008179295 -0.00024101794 -0.004489439 0.0019710069 0.0016850386 0.0042911274 -0.00089584786 0.0027466945 0.005873646 -0.0018726379 -0.003149753 0.0025705742 0.0051853997 0.00037180266 0.0006620063 -0.005404879 -0.0028156794 0.0032647927 0.0053098816 0.0017829748 0.0017534423 0.005400024 -0.0050321715 -0.0019907656 -0.0009250208 0.003143461 0.0003702687 -0.004690449 -0.0018027943 -0.0057425974 -0.0029361015 0.003982132 0.0018750728 -0.0003263318 -0.0048647304 -0.0060032867 0.0038890739 -0.0035821765 0.0006353473 -0.0019411611 -0.0048302994 0.0009206106 -0.00400037 0.0027593137 -0.000922792 0.0019524973 0.002508898 -0.0030327467 -0.0017761883 -0.00079025404 0.0025386312 -0.0018708861 0.0015399834 -0.0009755151 -0.0026425708 -0.00039084133 0.0038980711 0.00067400496 -0.0042881733 -0.0028606881 0.0048178066 -0.002032068 -0.0015872859 0.00026887693 -0.0010403175
boleto -0.002436937 0.0014805538 -0.0036237445 -0.0012554658 -0.00077335985 0.0041034804 0.0021312025 0.00231408 -0.0049403002 9.1296264e-05 0.002171179 0.002814868 0.0024738784 0.0027718286 -0.0037715565 -0.00080163626 -5.7805308e-05 0.0004907006 -0.0036523503 -0.0031456912 -0.00071241753 0.003981075 0.001760625 0.0038680115 -0.0024424563 0.0012752967 0.0023518526 0.004994645 0.0024601447 0.005953424 -3.7884132e-05 0.0032028058 -0.00053842284 -0.003119122 -0.0030356692 -0.0009705427 -0.006605651 -0.007428749 0.0022068974 0.0024536392 0.0009159027 -0.0022533007 0.0005758592 0.00060164393 0.0016288523 0.004680853 0.0014212762 0.0045863325 0.0019956687 0.0038357354 -0.0069896756 -0.0024536399 -0.0016464293 0.002021703 -0.0006229592 0.0010317239 0.0023600336 0.0031155695 0.0061023524 -0.008299003 0.0032385616 0.0039685904 0.0035619542 -0.00020798825 0.0012285294 -0.0022284514 -0.0045886836 -0.0011928306 -0.0052717235 0.0018221433 -0.006801665 0.000542865 0.004360175 0.0039676996 5.967857e-06 -0.005507606 -0.0006060894 0.00376093 -0.003449616 -0.004071653 -0.0069703227 3.959008e-05 -0.0008485119 -0.0027069587 -0.005578266 0.0026958736 0.007480937 0.002670871 -0.0016520048 0.0029839298 0.0023022266 -0.0038472808 0.00667683 -0.0051041697 -0.0032246886 0.0021835032 -0.0007113376 -0.004817896 -1.2380122e-05 0.0018674607
especial 0.0045212507 0.00038192837 -0.0008743865 -0.001557888 0.0015585154 -0.003213467 -0.004666175 0.0030644261 -0.0053934194 0.003924872 0.0011488751 -0.004470967 0.0027730637 -0.003694289 0.0019596787 0.0020210687 -0.0030188083 -0.0010486351 0.0016746579 0.005986875 -0.0046919594 -0.00024242452 -0.002463652 0.0009358875 0.00055346376 0.0015004202 -0.0031821432 -0.00087204226 -0.00488375 0.00410049 0.0032520664 0.002379967 0.00434018 -0.0021861538 -0.001974235 -0.00041642963 0.0025971758 0.00075575436 0.0040836968 0.004357112 0.005740819 -0.0014454374 0.004661928 -0.0032627736 0.00025184194 -0.00025803503 0.00022891094 -0.0001743773 0.00071941235 0.0025235817 -0.0007387831 4.8582533e-06 0.0021473067 0.004024245 0.0015435135 -0.0065353783 0.002459241 -0.0022753929 0.005205148 -0.0065231035 -0.0024259863 -0.0027012625 0.004163088 -0.0023107678 0.0008053528 -0.0027371475 -0.0006455837 0.0031084497 -0.0056561492 -0.0035009221 -0.0010707371 0.00014452169 0.001360626 -1.7940447e-05 -0.0026908433 -0.0049579428 0.004201462 0.004205755 -0.0016787789 0.0032632411 0.0008954453 -0.0024527006 -0.002444579 -0.0006202252 -0.0023289777 -0.0027023992 0.0025042137 -0.0010737464 -0.004564947 6.4927815e-05 0.0006489174 -0.0014839242 -0.0020118696 0.0013536189 0.0013351568 0.0052249953 0.0015567422 -0.0023144863 -0.0034167815 0.0028781209
contrato -0.0028619105 0.0040822267 -0.0016856663 0.0014268927 -0.0023587097 0.00563385 0.0027793213 0.0017869597 -0.0024849435 0.0049453625 -0.0054518413 -0.0032736761 -0.00028233655 -0.002323058 0.0017491727 -0.005501607 -0.0025243466 0.0019136368 0.00019285153 -7.592033e-05 0.00090912636 0.0023243502 0.0043047066 0.0044934074 0.0035695878 0.003709371 -0.0024339303 -0.0026440402 -0.0011968022 0.0013928895 0.0003448436 0.004195171 0.0032757118 0.0066264956 -0.0026656068 0.005670473 -0.00013471204 -4.318363e-05 0.0006836802 0.0042204 0.0009410074 0.0017296697 -0.0021454375 0.006366585 -0.0007399998 -0.0009232826 -0.0006041423 0.0003884466 -0.00030995722 -0.0011124349 -0.002271669 -0.0032788464 -0.0023560538 -0.0003322 0.00547893 6.842759e-05 0.0060657077 -0.0011473538 0.0007244228 -0.008278396 -0.0017138408 -0.003581262 -0.004140539 -0.002750589 -0.0048191827 -0.0024822492 0.0014582208 -0.0037864 -0.005139962 0.0024079895 -0.0026416506 0.0043119313 0.001195255 6.673978e-05 0.0026096122 0.0034215678 -0.0024691767 0.0016609244 0.004547368 0.00027292347 -0.007244867 -0.0048459056 -0.0038883614 0.0030121936 -0.0049319738 -0.0020036548 -0.0012722645 0.003359793 0.00023846538 0.0029895066 -0.0040587243 -0.0002927888 -0.0012395767 -0.00064453116 0.002474537 0.0056271073 0.0028144885 -0.0031879565 -0.0013024098 0.0015548519
total 0.004415701 0.0034410849 -0.0042471983 -0.00059007667 0.00033048374 0.004391218 0.0017177432 0.0028528208 -0.005733822 -0.00051043887 -0.0031322658 -0.00081440766 0.0059079775 0.0017125204 0.00360318 -0.0007290811 -0.0027249719 0.0047776625 -0.0029717651 0.0040099868 -0.0034510186 -0.0019725168 0.0010234847 0.002560747 0.0044655325 0.0055720275 0.00073869014 0.0039665694 0.0028686803 -0.0022864223 0.006629472 0.0025521861 0.0020907708 0.002982695 -0.0027782498 0.004941325 -0.0061440053 -0.007852688 -0.0051232832 0.006406897 0.0061158296 -0.004983511 0.0012505308 -0.00015457025 -0.004224444 0.0006876362 -0.0027089913 -0.0015889795 0.0014183841 -0.00040680976 0.0021109327 -0.005317395 0.0042354004 0.003562905 0.0025749032 -0.0031579253 0.0037559594 0.0034996034 0.0037070836 -0.0036707816 -0.0041932105 0.003842614 -0.004280502 -0.0027189828 0.0020650595 -0.004648553 0.00096735684 0.0045741363 0.0020819765 -0.0029635695 -0.0058661457 -0.004028778 0.0003064978 -0.0012161753 0.0046742824 0.004459092 -0.0029594968 -0.0029901073 -0.0039007883 0.0015292936 -0.006971269 -0.0040423754 -0.004642344 0.00069759873 -0.0049726935 0.0004100361 0.0006270617 0.00062776136 -0.0036562267 0.0013654936 0.003055722 0.0006972766 0.004882562 0.0009169374 -0.0022154239 0.0034745124 0.0040142145 -0.0038052262 0.0059191296 0.003959483
sobre -0.0049701165 0.0040749493 -0.00050937827 -0.003168708 -0.0027914348 -0.0031035198 -0.005868595 -0.0022338193 -0.0011183253 -0.0028043988 -0.0022260593 -0.0067663887 0.005947423 -0.0038491879 0.002167549 -0.0035411562 -0.0012229556 -0.0006556414 -0.0042442465 0.0030800465 0.003697179 0.0036146268 -0.00019634882 0.0024556099 -0.0027290555 0.0039475495 -0.0025401013 0.0059282794 -0.004186141 0.0057490063 0.0029607054 -0.0013706742 -0.00071912166 0.0012596931 -0.0007474567 0.00494998 -0.005909173 0.0016386085 0.003901359 0.00020220717 0.0001595041 -0.0013116363 0.0029356182 0.0029444143 -0.0022928654 -0.0036555743 0.001403773 -0.0033483636 0.004081285 0.0039485507 -0.0012365336 0.003300053 0.0033594393 -0.003093457 0.0046803397 0.0023388176 -0.0022320508 -0.0019101129 0.0027913093 -0.0065513467 -0.0023613707 -0.0040432615 0.0031924 -0.0011072954 -0.0070019676 -0.0069968505 0.0032456105 0.0011755214 -0.00087596825 -0.004225254 0.00038664482 0.0034825467 -0.0027281037 -0.00088766287 0.0035893407 0.00043012065 0.00026060798 0.00087697664 0.004157748 -0.0007281344 -0.0003369385 -0.0031063752 -0.0045514735 -0.001807218 -0.005299259 0.0024083622 0.0043570613 0.005976372 0.0033992413 -0.0010228363 0.004326565 -0.0037828363 0.001709309 0.0035501325 -0.002391054 0.0065673357 -0.0019401516 0.004012072 -0.0014223339 0.0006149288
fundo 7.658301e-05 -0.0027595551 0.003526845 0.003193952 -0.0030604673 -0.0017896943 0.0026210148 -0.0023294743 -5.1924337e-05 -0.002876433 -0.00020036877 -0.0050518624 0.0009131331 -0.0015720115 -0.003006887 -0.004395543 -0.0024347838 -0.0018240423 -0.002923006 2.3859948e-05 0.0028837381 -0.0019819976 0.0043167523 -0.003868973 -0.001963902 -0.0039933864 -0.00016766101 0.00016311952 -0.0022461307 0.0047268867 0.006808454 0.0062009413 -0.004949179 0.004786956 -0.0062090927 0.0042444738 -0.0016741648 -0.005597195 -0.005550076 0.007262774 0.0032194695 0.0029795854 0.0031457602 0.004071222 -0.0045345877 -0.00285802 0.004964123 -0.0034045624 0.0033694133 -0.0043046516 -0.0020533605 1.9383717e-06 0.0043353117 -0.0017095924 0.00077089085 -0.0033597604 0.0035073436 0.0039939703 0.006686194 -0.008160303 -0.0039014323 0.00052749604 -0.0009267873 0.001823669 0.0006238787 -0.0025649865 -0.004564136 -0.0036248388 0.0033197696 0.0006172502 -0.0022647404 0.0017589915 -0.002783522 0.0035498666 0.0047251508 -0.0023701324 0.0011524502 0.00088234607 0.0019979852 -0.0031945615 -0.0011725356 0.0037098206 -0.0026509447 -0.0003656937 -0.0032072417 -0.0054213307 0.004658743 0.009362327 0.000610887 -0.004528808 -0.0016316093 0.0047028787 0.004458075 0.004677458 -0.0005313158 -0.00030008177 -0.0026749338 -0.004827875 -0.0016204842 0.005356416
forma -0.005366396 -0.0022548262 0.0016064192 0.002369525 -0.0038151178 0.005508009 9.4782175e-05 -0.00031683606 -0.003953034 -3.4872224e-05 0.0041063884 0.0005397994 -0.002204759 -0.0014641087 0.0023160744 -0.002123109 0.00094186526 -0.0027330152 -0.004837971 -0.003400337 0.0004159239 -0.0041989153 0.0014722563 0.002875018 0.003812015 -0.0021337678 -0.0035735513 0.0045351195 0.0036545945 0.0035809537 0.0045610564 0.005689062 -0.0012781295 0.0047371094 -0.0029124757 -0.0011409672 -0.007663337 0.0015482063 -0.00254972 0.0049626757 0.0037578193 -0.0043715034 0.0057774214 0.0066515147 -0.0014519537 -0.0017079611 0.004040199 0.0012099125 0.0061376696 -0.0046939603 0.00050244306 0.00039583317 0.0008182262 0.00066216954 0.0054312646 -0.0025190525 -0.0025343616 -0.005185552 -0.0017120304 -0.0017742016 -0.0047975522 0.005473399 0.0017712488 -0.0031251584 -0.004288227 0.0022740418 0.0036740974 -0.0009724483 -0.0056546363 0.0036140464 0.0018332491 0.0037698853 -0.00062419014 0.001526312 -0.0031367333 0.0018092489 0.0040594214 -0.0010951094 -0.0013228988 -0.0042620525 -0.0009368501 -0.0012376062 -0.0017537148 0.004925977 -0.0027334336 -0.003652552 -0.0013794835 -0.0002485446 0.00086750643 -0.004352146 0.0019961095 -0.0017514406 0.0039515933 -0.0010966725 0.0021931564 0.0059069456 0.00035400962 0.0049033454 0.0013554599 0.000983402
ter -0.0013598928 0.0001803663 -0.002063578 0.003735566 -0.0009954807 0.0011451477 -0.0041911914 0.0024959499 -0.0009104144 0.0013876754 0.0040420634 -0.0049401773 0.005949592 0.002803132 0.00017622406 -0.007225243 -0.0007447583 0.0029513773 -0.0047525605 -0.0010810328 0.00031216675 0.004089021 -0.0016275239 -0.0040766457 -0.0035328765 0.0020013545 -0.0019036182 0.0015742333 0.0010999494 -0.0025896959 0.0012148069 0.0055501824 0.0018327701 -0.0027739818 -0.0017053991 0.0049270852 -0.00819314 -0.0014602416 -0.0049110204 0.0069148443 0.0021737958 0.0037269737 0.0035824652 -0.0020247037 0.0011516789 -0.0044694915 0.001683065 0.0025715667 -0.00028809436 0.0007659173 -0.0063333265 -0.0023370136 0.002983624 0.006480437 0.0015665315 -0.0055815103 0.0053645414 -0.005278115 -0.0019365741 -0.0030281062 -0.0046895314 0.00492862 0.0047331224 -0.00075719005 -0.0029039318 0.00018331091 0.001511928 -0.0032214604 -0.0058221794 -0.0001059883 -0.001197329 -0.00053860294 0.0053239544 -0.00023323388 0.0024496312 -0.005124624 0.0032237 0.0004435837 -0.0021972503 -0.0013469956 0.0015279577 0.0038827958 0.000113642476 -0.003706501 -0.00072375924 0.0002049203 0.0065026083 -0.0002626011 0.0012994538 0.0030114753 0.003129601 0.004745078 0.0062095947 0.004162741 -0.0011343136 -0.0011659035 0.004915204 0.0022706417 0.0026321397 0.0023481613
serviço 0.0027303072 -0.0035550098 -0.0019309558 -0.0042319475 0.0016148061 0.0014077785 -0.001202582 -0.003554708 -0.0062216516 -0.00034465684 -0.005575379 -0.0030915355 0.003926078 -0.0023835714 0.003922543 -0.007665073 0.0041613854 -0.001955697 0.0008161995 -0.00045507657 -0.00088192336 -0.0049035084 0.002306506 0.0027486233 -0.003926141 -0.0028488254 -0.0034177925 -0.0018922961 -0.0019199622 0.005024394 0.0008957021 -0.0008101221 0.0024308471 -0.0007903363 0.004081092 0.0040694014 -0.006530665 -0.0010052732 0.0011552583 0.006989861 0.0063136024 0.0029579576 -0.0016842241 0.0012647405 0.0041918037 -0.0012887828 -0.00045779493 0.0016325378 0.00064303103 -0.0051406585 -0.006231114 0.0034410167 -0.0037058264 -0.0027212237 0.0047272495 -0.0071135536 0.0059387158 0.0036234725 0.0015194679 -0.0089582065 0.0027120118 0.0025566935 0.0032667962 -0.0034895572 -0.007998171 -0.0064794174 0.0033781985 -0.0034928967 -0.00050397974 -0.00033894455 0.00036560418 0.004232685 0.004781522 -0.001588325 0.0026489664 0.002044597 0.004955634 -0.0041895416 -0.0023363922 -0.0034471669 -0.0054416885 -0.0026631427 0.0010055703 0.0036606435 -0.001786516 -0.0064215553 0.0068269935 0.002761687 0.00023843601 0.003080222 -0.0032880902 0.00058995007 0.0075294273 0.0012999069 -0.0044106743 0.004059508 -0.0012534554 0.0016751214 0.002116571 -0.0041605732
instituição -0.004648174 0.001420937 -0.00016694576 0.0029192525 0.00084758905 0.003264066 -0.0064086486 -0.00090700615 0.0015145625 -0.0009416298 0.00055876136 -0.004128731 0.006423338 -0.0034528144 -0.0039619743 -0.0013790687 0.0029796364 0.004839308 0.0034672928 -0.0013244405 -0.002881525 -0.00033352585 0.0045412024 -0.0046658 0.0010117562 -0.0032229722 0.0003883183 0.00046350743 -0.001006712 -0.0026532141 0.00029617012 -0.0007403792 0.0014935841 0.0031132044 0.0041785995 -0.0032083807 -0.0012299105 -0.0028343468 -0.0026933264 0.001335387 -0.0024483907 -0.003815866 -0.0031519232 0.005045951 -0.001137407 0.004849649 0.0028304888 -0.0018635574 0.0030094874 0.0037663188 0.0024509009 0.0021126815 -0.0038206885 0.0051397225 -0.002480437 -0.004776937 -0.0011327291 0.00042583112 0.002503314 0.0019664725 0.0044467417 -0.003841586 0.0021160354 -0.006309966 -0.0062257075 -0.004000828 0.002204747 0.0037777266 -0.0009990848 0.004059715 -0.005899011 -0.0026170106 0.0042395955 0.0015223249 -0.00440978 0.0027378714 -0.00023159687 -0.0028765665 -0.001757598 0.00011844924 -0.004171138 0.0013863922 -0.0029411244 -0.0034478938 -0.003419873 -0.0002537691 0.002497418 -0.0017349235 0.00016543442 -0.00016515046 -0.004260032 0.0023223956 0.00039971218 0.0038605423 0.00071777776 -0.0034153382 -0.0018558189 -0.0046181125 -0.004221588 0.00034428158
fatura -0.0043373657 0.003300942 0.0043155774 0.0028194098 -0.004780382 0.0055722226 -0.005319259 0.0028613445 -0.0037276575 0.005453619 -0.004385518 -0.0010785462 0.0008599674 -0.0012729048 0.0030856044 0.0003533311 -0.0021358333 -0.0010619512 -0.0035054686 -0.00029026912 -0.0028519721 0.0031855775 -0.0019234059 -0.004205123 0.0038719084 0.0015108311 -0.006125113 0.0061895917 0.0018217557 -0.001173582 0.0016066541 -0.0020496324 -0.0045340997 -0.0013684753 -0.0052300245 0.0055829645 0.00050523295 -0.003471513 0.0011235002 0.0057926457 -0.0032774757 -0.0014475373 -0.00084666495 0.0026123717 -0.0012151208 -0.0022938417 -0.0044192984 0.004233528 0.0013966104 0.0010759004 -0.002575747 -0.0024622153 -0.003960018 0.00029261594 0.00043662853 -0.0014291359 0.0006480635 -0.0036003715 8.289525e-08 -0.0065002707 -0.0016899594 -0.0012379129 -0.0020042462 -0.0051750136 -0.00061299687 -0.004196821 0.0029457693 0.0030188113 0.0030008275 -0.0013498595 -0.0021373008 0.0028170557 -0.0027329226 0.001523684 0.0004474071 -0.004534199 0.0006861145 -0.0018120884 0.0019883781 0.000109513894 -0.0024788813 -0.003615467 -0.00074512657 -0.0038697226 -0.0017879206 -0.0010407652 0.0065031457 0.0047814385 0.002079999 -0.0012743969 -0.0035306027 0.0020449264 0.0047021946 0.0047680563 -0.0044401907 2.1527776e-05 0.001417229 -0.0005222355 0.0015831265 -0.002222465
tipo 0.0040658657 -0.0003826131 -0.00059523835 -0.0007692897 -0.00090092036 0.002933064 0.0005576212 -0.0010228558 -0.005257007 -0.0020449462 -0.0042138803 -0.004829276 -0.0023747007 0.0003565705 0.005656276 0.0016288825 -0.0018048012 -0.002382808 -0.0008439514 0.0033666056 0.0013233346 -0.0017855887 -0.0019044161 0.0019293647 -0.0037300836 0.0050773225 -0.002236295 0.0035936777 0.0008922777 0.0013600406 -0.00053157756 0.001372618 0.0047474504 -0.00028102865 0.0039929315 -0.0007875821 -0.003889138 -0.006148547 0.0011753915 0.005884582 -0.0010669424 -0.001173518 0.0053429976 0.0010470381 -0.0023784637 0.0036008216 0.00095490844 0.0008605322 -0.0023618853 -0.002020989 -4.1144227e-05 0.0010885112 -0.0014546942 -0.00072671357 0.006568516 -0.004882479 0.0055518197 0.0033799575 -0.0011066372 -0.0060964995 0.0008142284 0.0019939023 0.0049488586 0.002521341 -0.0032952328 0.0012094658 -0.00042524646 0.0012250039 -0.003105374 -0.00243407 -0.0008168952 0.0041999314 -0.002086552 0.005184041 -0.0026175955 -0.0033245897 -0.0012127964 0.003247786 0.00056137465 -0.00017151138 -0.00091608794 -0.00013593402 0.0046838275 0.0028430468 -0.00319299 -0.0032528099 0.0037933057 0.008336638 -0.0060246815 -0.0015190581 0.0021704873 -0.0006031294 0.0011605405 -0.004155438 -0.0058092303 0.00023462078 0.0010885783 -0.0046350826 0.001585617 -0.000108167595
nome 0.0001859872 -0.005065837 -0.0018832864 -0.003534837 0.0023173408 -0.0011894646 1.5036063e-05 0.0025324028 -0.0034741166 -0.0041086655 0.0026409659 -0.0012020146 0.006247242 0.0032279515 0.000716633 -0.0061676484 -0.004249024 0.004564487 -0.005685121 0.0050815763 -0.0030597264 0.002241779 -0.004760808 -0.0014974636 0.0045794854 0.004874027 -0.006209316 0.0062085884 -0.003908649 0.0021882323 0.0038856587 0.003757982 -0.003936734 0.0011457641 0.0036361164 -0.0027814088 0.0009060441 -0.0012072605 -0.00043503745 -0.0018310505 -0.0013293733 0.00069261435 -0.0003848497 0.0052620503 0.0021285203 -8.297299e-05 0.0016631885 -0.0037324836 -0.0017299043 0.0014026453 -0.002217387 0.003997501 -0.00092991063 0.0027468146 -0.0017280942 -0.005060283 0.0028953762 0.0030281474 0.0020160293 -0.007350456 -0.0018667707 -0.00086790277 -0.0028035406 -0.0023168568 -0.0044620964 -0.0028896616 -0.0024338595 5.0962524e-05 -0.003182095 0.0007437598 -0.0033236814 0.0005336115 0.004932779 0.00042226835 -0.00023283003 -0.0002308545 0.0031572382 0.0019979298 -0.0040583042 -0.0054970724 -0.0038562869 -0.0009529285 -0.00028498258 0.0028179574 0.0008143729 -0.00044366228 0.00845036 0.007727329 -0.0020914199 0.00223587 0.0048263646 0.0022992129 0.003988398 0.00041295745 -0.0020214308 0.0040273257 0.0063781026 -0.00047843275 0.002518885 -0.0015546973
consorciado -0.001214733 0.0013751965 0.0012391956 0.0010381506 0.0023554268 0.0051189745 -0.004553823 -0.0036196054 -0.0016090039 0.0034880396 -0.0003945368 -0.0027796093 0.0026407416 -0.003075641 -0.0014492421 -0.005414299 -0.0005446179 0.00063554896 -0.0043602306 -0.0033842698 0.0031092323 0.0011052022 -0.0010543353 -0.00398068 0.0017320686 0.0047310856 -0.0058797672 0.0036576001 -0.0020347503 0.005722557 0.0008936821 0.0021509733 0.0035603666 0.004660558 0.00018618171 -0.00033249528 -0.00705051 0.00033872406 -0.0021875377 0.002513654 0.002534285 -0.0028936574 0.0044118925 0.0071441806 0.0023170381 0.0018324789 -0.004024077 -0.00079690537 0.0007392734 -0.0005258192 -0.0043883286 0.0013156995 -0.00013976301 -0.0022364215 -0.0007124336 0.0015439367 -0.00076091057 0.0035429199 -0.002271451 -0.005700485 -0.0013147821 0.00012236836 0.0031810107 -0.0052677593 -0.0021225002 0.0010713486 0.0049435482 -0.0022158294 0.0015773216 0.0035973832 -0.0020003454 -0.0016937323 0.0030480663 0.001663518 -0.0022379498 -0.0053570047 -0.0029991004 -5.3206877e-05 0.0031921582 -0.002716068 -0.0064164186 0.0025102936 0.004007478 0.0023349186 -0.004069793 -0.0029588211 0.0040235147 0.0032304106 -0.0060573244 -0.005397752 0.0017960798 0.0027291344 0.0054421807 0.001295064 0.003263025 0.0045039174 0.0016472505 -0.0037126865 0.0038771615 0.0051094703
cota 0.004328644 0.0028655543 0.001614325 0.003495343 -0.005632964 0.005260312 0.00094294845 -0.0058701625 -0.004775779 0.0051767617 0.0013699898 -0.001666302 0.0067483587 0.0007571987 -0.0035951762 -0.0036335425 0.0037897709 -0.0018031413 0.0016615544 0.0030913348 0.0056060897 -0.00078164006 -0.003799685 -0.0035676844 -0.0023183653 -0.0021728205 -0.005908866 3.575408e-05 0.0011515273 0.0055996478 0.0064945403 -9.95017e-05 0.0037509615 0.002443605 -0.005402017 0.00019428474 -0.0076753977 -0.0051664957 0.0021426366 0.0048664315 -0.00013164154 -0.0014879816 -0.003761981 0.006348917 -0.0014818553 0.0023469196 -0.0009651335 0.0038793283 0.0033736278 -0.003775017 0.00058116385 -0.0038223027 -0.0023922191 0.0015068919 -0.00024931715 -0.0052960915 -0.00077718176 -0.00152648 0.0013290545 -0.006682944 0.00317012 -0.00063507096 -0.0027112325 -0.0013778462 -0.0025106985 -0.0025237387 -0.00084454525 -0.0034748265 -0.004019029 -0.0041337023 0.0010329447 0.0023222028 -0.002003934 -0.0027844696 -0.0029383777 0.0033370308 0.00026403996 0.0042343647 0.0025467176 -0.0013139794 -0.004070904 -0.0029585427 0.0034293262 0.004439797 0.0028077653 0.003500778 0.0011128263 0.002684593 0.0028723318 -0.0017812093 0.0013767361 0.004581317 0.0005659014 -0.0044111502 0.0014804661 -0.001626461 -0.0030472823 -0.0032409339 0.005208762 -0.0015279992
prazo -0.004028905 0.0017383555 -0.0015958307 -0.0043422957 0.0013202021 -0.0038191865 -0.0005679808 -0.0050910236 -0.0019517919 0.00025690853 -0.005045994 0.0036331008 -0.00282671 0.0015612235 0.002683964 -0.00547096 0.0014717716 -0.0010613869 0.0034159748 -0.0005640465 2.0432428e-05 0.0010968897 0.004714755 -0.004505221 -0.0015547555 0.0046829614 -0.004541392 0.00421644 -0.0035926478 0.003826608 -0.0029135917 -0.0013994536 0.0039326116 -0.002374373 -0.004909541 -0.0043016626 -0.0068704216 -0.0008490297 -0.00017942894 0.0052015446 0.002864257 0.0029480767 -0.00084141677 0.006373594 -0.0021525666 0.0014061604 0.0033499452 -0.0021194601 0.00083887373 -0.0040273084 -0.0066512353 0.0005040163 -0.0009049634 0.001274408 0.0038540554 0.0010229446 0.003122675 4.060286e-05 -0.0017484749 -0.0067373347 0.0038383473 0.001041399 -0.0014670945 -0.00067148363 -0.0019078128 -0.002843332 0.0014280118 0.004886454 -0.0052531515 -0.003942896 0.0029419642 -0.0044942293 -0.0032693879 0.0015785234 0.0039059038 0.0009333503 -0.001518621 0.00053344143 0.002924396 -0.0021971609 0.0023396043 -0.0003291866 0.001339315 0.00502463 0.0010487647 -0.00069225574 0.007152857 -0.0016662753 -0.0021123134 -0.0052675204 0.004814351 -0.0028556203 0.0070334864 0.00056706043 -0.0011298446 0.0018733331 0.0047444273 -0.0017276555 0.004105928 0.0016857944
tarifa 0.0037059463 -0.0027995505 -0.003031164 -0.0031506403 -0.0046107494 0.004259498 -0.004079973 -0.0036094207 -0.004984821 -0.0015475927 -0.0036761179 -0.006888805 0.0004894743 0.0008265206 -0.0008400805 -0.0055882325 -0.0029962086 0.00551826 -0.0059485957 0.0035766903 -0.0008745246 -0.0020193316 -0.0048241355 0.0026623697 0.0032300309 -0.0020915787 -0.0013045056 0.0043457765 -0.0016416888 0.0067962436 0.0027038245 0.00076679257 0.0033796332 -0.0033245387 -0.00093903445 -0.002829606 0.0011765086 0.0022983246 0.0017488444 0.0034769555 -0.0026834784 -0.0040095067 0.0035413906 0.0041492796 -0.0036497242 0.0018021369 -0.00033083902 0.0005899665 0.0022341087 0.00014249833 -0.0021253459 0.003710186 -0.0010190455 0.0034488472 0.003217433 -0.006954874 0.0051377905 0.00046972695 0.003926244 0.001227743 -0.00533617 -0.004482783 -0.0023013998 0.0005340811 -0.0016713423 -0.0068486426 0.0022682326 0.0051341876 -0.0063050813 8.824201e-05 -0.006312182 -0.0033565478 0.0011163972 -0.0022255173 0.0020739685 0.0027011207 0.0058086216 -5.4125147e-05 -0.003604657 -0.0057705133 -0.0046970434 0.00088297174 0.00083556667 0.0023555693 0.0004520367 -0.0021396147 -0.0015251469 -0.001339731 0.00038754693 0.0034955817 0.0024273617 0.0058972156 0.0012979688 -8.63463e-05 -0.00074467796 0.005851162 -0.00331437 -0.001986915 0.0028481176 0.0052771415
comprar -0.005382869 0.0038879744 -0.003413693 0.0008104323 -0.004296459 0.00067828863 -0.0063126683 0.0027229046 0.003490408 -0.004308735 0.00046396977 -0.0037888086 0.00083816255 -0.005118165 -0.0025169854 -0.007692274 -6.438538e-05 0.0006162937 -0.004227942 0.0061166543 0.0008206258 -0.004971435 0.0017604298 0.0006359589 -0.0014453956 0.0024855682 -0.007894788 0.0012745115 -0.0024688367 0.0044361115 0.0033515622 0.006244687 -0.0040709754 0.0048602815 -0.005363522 -0.00059315166 -0.0046234964 -0.0030344946 -0.0025222641 0.005238973 -0.0019465806 0.001357617 -0.0004120644 -0.0014841015 -0.0009852645 0.00090497505 -0.0005431778 -0.003297626 0.00091035315 -0.0017492916 -0.0028279216 -0.0007754305 -0.0020487832 -0.0012115493 0.0052136267 -0.006882264 0.004830633 -0.0016818036 -0.0005847925 -0.0052451096 0.0021063033 -0.0022487298 -0.0013077458 -0.0022984769 0.00048205946 -0.0003641663 0.004500933 -0.0003770748 -0.0044683805 -0.002332127 -0.005842195 -0.0013185227 0.0015942304 0.0020814196 0.0019976099 -0.0011240175 0.0025634586 0.0021703637 0.0014238897 -0.001342434 -0.0035510352 -0.006336786 -5.4336706e-05 -0.0018478232 -0.0019706956 -0.0008348361 0.0066272304 0.007889629 -0.0035676602 -0.0031132759 0.0058148373 0.002138804 0.008786373 -0.0046035056 0.0030965148 3.5648365e-05 0.005893437 -0.004110558 0.0049153883 -0.0042376854
dia -0.0032659136 0.00093115144 0.001491221 0.00015642206 -0.001449539 0.0016660402 0.0011488708 -0.0046626423 0.0034773203 0.003016735 -0.0019141594 -0.002611123 -0.0033841766 -0.0050880127 0.0034272291 -0.0059148585 0.003501246 0.0054381574 -0.00045278724 0.004320928 -0.0017975713 -0.004954516 -0.0016750763 0.0002998565 0.005723269 -0.0019923998 0.00089924544 -0.002362756 0.0031123676 -0.00014776162 -0.0008367318 -0.0025635213 -0.0031152864 -0.00067159766 0.0013113096 -0.0022814353 0.0018004219 0.001154433 -0.0028240925 0.004380307 0.006253002 0.0005664233 0.0039831637 0.003083768 -0.0041846735 -0.0014016178 -0.0045476467 0.0020368162 0.006359647 -0.0035760433 -0.0038433794 -0.0021130824 -0.00041663242 0.0028006514 0.0015638389 -0.0065439837 0.0041032927 -0.005752531 -7.8624085e-05 -0.00023405779 -0.005027605 0.0051630842 0.0014987733 0.0014215832 -0.0028176813 -0.006620197 -0.00068818097 -0.00089262053 0.0017100037 0.0016613372 -0.00092747976 0.0041764793 -0.0026911742 0.0013031543 -0.0047015627 0.00035611336 -0.003022119 0.00058796286 -0.00061636337 -0.0017732012 0.0004666949 -0.0020956958 0.0031709382 0.0016837951 -0.002085002 0.0026140804 0.005188834 0.0042854412 -0.001146021 -0.0023781525 -0.0014586439 0.004890616 -0.0010066663 0.0039520273 0.0004114677 -0.0032247612 -0.00053824787 -0.0036607664 -0.002779921 -0.0030131403
fazer -0.005198968 -0.00079098827 0.0008535332 -0.004995144 -0.0059991665 0.00417019 -0.006412602 -0.002965237 0.0017578752 0.0041225827 0.0030027397 -0.003724721 -0.0028868504 0.003703222 -0.001626558 -0.0012651593 -0.0019294892 -0.0020562971 0.002908258 0.0053567933 -0.0020670986 -0.004335676 0.003064642 0.0022326922 0.0037223028 -0.0035869589 0.0017538504 0.0050759926 -1.826393e-06 -0.0031960404 -0.002668233 0.0036150613 0.0035402551 0.00013724317 0.0022660966 -0.001599035 -0.0061347843 -0.0021374384 -0.0031119061 0.00633772 0.0051947157 -0.0044623683 0.0051756618 0.0022924107 0.00075468875 -0.0034958783 0.0006435098 -0.0028423732 0.0033436276 0.0019554277 1.18496e-05 -0.00396046 0.00076054735 0.0027880596 0.00551138 -0.0064476016 0.00550373 0.002290987 0.0026388527 -0.006557068 -0.0018207047 0.0022229613 0.0032592963 -0.0055100773 -0.0063050706 -0.0009009476 0.0038724742 -0.003583316 -0.0028082458 0.0046685175 -0.002084464 0.0027638092 0.0052525895 -0.0034476337 -0.004636419 -0.0053332155 0.0019312602 0.0027919472 -0.0024641906 -0.003002911 -0.0010133268 -0.005389591 0.0016352426 0.003956904 -0.0023936455 -0.0036345115 0.008102742 0.00022131485 -0.0032926223 0.00076664594 0.005923795 0.0024168564 0.0022526702 0.002240794 -0.004179611 0.0034003297 0.0025614 -0.002711586 0.0042732684 -0.0027319253
valores -0.0026227483 0.0011914229 -0.0032532243 -0.002942952 -0.003163506 0.0019866084 -0.0058829836 0.0010343563 0.0029875953 0.0019557583 0.0016528396 -0.0056430167 0.0014829318 -0.0013525279 0.005481325 -0.0036031147 -0.0028665431 0.00052797596 0.0008458588 -0.0011198956 -0.0023689903 0.0009998177 0.0013008858 -7.543967e-05 -0.0012406216 0.0038271225 -0.006545908 -0.002157944 0.003632437 0.004743757 0.006530597 -0.0007385175 0.0049685827 0.0054861307 -0.0032971771 -0.0010866512 -0.0070232237 -0.006328715 -0.003568609 0.0048766444 0.00013394268 -0.0011865566 -0.0021869096 -0.0015437673 0.004988792 0.0041998466 -0.0037832144 0.0053732507 -8.022208e-05 0.0035599999 -0.0056382967 -0.0040741805 -0.0048045837 0.0022476732 0.0059863143 -0.00073798903 0.0002428569 -0.0025455616 0.0033853995 -0.007676359 -0.0013630547 0.0056111054 -0.00016905315 -0.0078120837 0.0012768717 -0.006623223 0.00489962 -0.0044912216 -0.0049951514 0.004150084 -0.0013466658 -0.003240768 -0.0005732508 -0.0037151373 -0.0022162641 -0.00070289 0.0062308297 0.0011873819 -0.0030290922 -0.0023499867 -0.003974268 0.002655516 0.0015332157 -0.0016419333 0.0030336368 -0.001002723 0.0029517966 0.0057049836 0.0005643916 0.001913925 0.0013258823 -9.2252005e-05 0.0060985624 0.0024360383 0.001712598 0.006684674 0.004592477 -0.0025133537 0.0005137596 0.0027099403
outros -0.004256746 -0.0032125537 0.0029837005 -0.0002466516 0.00061639986 0.0017953645 -0.00647125 -0.0034811879 0.0001520213 0.005880429 -0.003529052 -0.0042073024 -0.0024365848 -0.0033806753 0.0021786764 -0.005335685 -0.004010916 0.0050095147 -0.0052326606 0.005823876 -0.0026700327 0.0005518664 0.0022580768 -0.00080665026 0.002811191 -0.0010281694 -0.0041796835 0.0054882765 0.00247351 0.0011013797 -0.0006860802 0.005014048 0.004496689 0.003824156 -0.0010286046 0.0051099216 -0.0036981357 -0.007299879 0.0028339983 0.00080605404 0.0066748112 -0.0019666653 -0.0008383161 0.003269473 -0.0028803707 0.0019904685 0.0022702918 0.0016506957 0.0011133531 0.0003812277 -0.0064759036 0.001353756 0.0016431692 0.0023829304 0.00537244 -0.001879145 0.0017171331 -0.0058342875 -0.0016707826 -0.008261506 0.001880605 -0.0022600496 -0.0041988567 -0.0015313274 -0.00698788 0.0012633636 -0.0033169237 -0.0007448705 -0.0051541994 0.004243332 -0.0072803088 0.0023020857 -0.0018795433 0.0020873928 -0.003844591 -0.0053897244 0.001404258 -0.0010944443 0.0010319139 -0.0064940387 -0.0076547014 -0.0012330876 0.0046290956 -0.0035677552 0.00036973748 -0.0019339081 0.0054746508 0.0009803735 -0.0011604066 0.0037995283 -0.00031903706 -0.0032422438 0.003627999 -2.7520355e-05 0.00033886926 -0.0024708665 0.0014157227 -0.0031698572 -0.0020985743 -0.0031162912
antes -0.004135149 0.0042120176 -0.0015089425 -0.0038237593 -0.0055394317 0.004515519 -0.0018867992 -0.0008777737 -0.0010934479 0.003771188 0.00094386033 -0.005291141 0.001713022 -0.0013067625 0.0010578296 -0.0033946042 -0.003750573 -0.0008779261 -0.0019662299 0.0034035791 0.00140297 0.0013194605 -0.0045803655 8.029522e-05 0.00485028 0.0010710396 -0.0030944236 0.0014904323 -0.0023091394 0.0016663163 0.0040332507 0.003363116 -0.0037277057 0.005693039 -0.0007400468 -0.0036560695 -0.0072539668 0.00016609483 -0.0018612803 -0.0021067297 0.0007148796 -0.005275219 -0.0016695136 0.0024922364 0.00043621624 0.0013075449 0.0027611083 -0.0009830575 -0.0028966514 0.0033774716 -0.006934641 -0.00403151 0.0035176226 0.0004026664 -0.0004573847 0.0030834363 0.0038716507 -0.000884975 0.003428821 -0.003700988 0.004376382 0.002475042 0.0035087916 0.0007399201 0.0019136898 0.001676724 -0.0032395062 -0.0016885374 0.0010153727 -0.0035977787 -0.004898986 -0.0043222276 5.1327817e-05 -0.002638754 0.0008320455 0.0022630708 0.005952084 0.00032686695 -0.00042668136 -0.006714012 -0.00016967516 -0.0017115826 -0.003691807 0.0051861685 -0.00040776018 -0.0036000202 0.0067599076 -6.273344e-05 -0.003820512 -0.0011792874 0.0030062064 -0.003347517 0.007590202 -0.002307912 0.00084637647 0.004832586 0.0034468595 0.0016793185 -0.0017784388 -0.0039263135
renda -0.0026553704 -0.0008166877 -0.0045629884 -0.001833314 3.842134e-05 0.0021763474 -0.0008636377 0.0017558606 0.0022557974 0.0021879247 -0.002202572 -0.0061648907 0.0023412318 -0.0015970814 0.0034613835 -0.004548614 0.0014023299 0.0058718086 0.0027826426 0.002787501 0.00045578176 -0.004636522 -0.0039990554 0.0010809184 0.003310031 -0.0039027545 -0.0002216392 0.0070509715 -0.0005596619 0.0052285236 -0.0014344609 -0.0032382358 -0.004289545 -0.0010956475 -0.0040493086 0.005224544 -0.006112711 -0.008135845 -0.00043315144 -0.00023395898 0.00083509425 -0.0036306067 -0.0019696138 0.006108119 0.0018209908 -0.0033214348 0.00069979235 0.0025118568 0.0019488095 -0.00071641203 -0.0038768768 0.0001482157 0.0035796524 0.0011561388 0.005147284 -0.0038592413 0.0063414606 -0.00493118 0.006634938 0.0007596895 -0.005165704 0.002839673 1.914074e-05 -0.003946637 -0.002141761 -0.004164111 -0.0016144634 0.0038427182 0.0032500701 0.0029211245 -0.0044664633 -0.0038092406 0.0035857626 0.0015999802 0.0019388199 -0.0013470401 0.0065410663 -0.0011077175 0.0051146946 -0.0040878234 -0.0051778685 -0.004760508 0.0032614039 0.0042755487 -0.005424265 0.0037487438 0.0038336585 0.00015514316 -0.00035729024 -0.005138936 0.0026360378 -0.004022419 0.005604936 -0.0004830001 0.002052431 0.006478664 0.005976958 0.004128226 0.0011792842 0.004639739
caso 0.00053881394 0.0025620346 -0.004640518 -0.004206078 -0.00236802 -0.0027602767 -0.0014099499 0.00029718678 -0.005051414 -0.0010556927 -0.005052103 -0.0036992386 0.002448806 -0.0027836075 0.00043149968 0.00049353315 0.0026165822 0.003986892 0.004125716 0.0015984346 0.00026958535 0.00013823166 -0.004623316 0.0012998201 0.0027097473 -0.00063032674 -0.0005015204 -0.002221849 0.0026958506 -0.001197119 0.0049124067 -0.00035142613 0.0048495564 0.0025506346 -0.00061916723 -0.001237353 -5.0450923e-05 -0.006880083 -0.0024442219 -0.0023123801 0.0035170475 0.0031473746 -0.0023560761 0.005308393 -0.0001133123 -0.0025246765 0.0033959597 0.0037818518 -0.0027799834 -0.002318399 -0.0060380176 0.0005328614 0.002375138 -0.0011989237 0.0032012796 -0.0015356235 -0.00040887785 -0.0001468997 -0.00068262493 -0.0071771843 -0.00095069804 -0.0025400054 0.0051070643 -0.0023431187 -0.0011474568 -0.006343662 0.004230535 0.0033995481 0.00340237 -0.0043372735 -0.006313453 0.00018580617 -0.0032840446 0.0033923965 -0.0038292275 0.0042647813 -0.0038166582 -0.0037259827 -0.0011712917 -0.002567965 -0.005472831 0.0019985812 0.0023760188 0.004331912 0.0025988743 -0.00269097 0.005886774 0.007986758 0.00096472993 0.0017481253 0.004924801 0.000339908 -0.00039319517 0.0036968198 -0.005795984 -0.0002153926 0.0006257648 0.0032835018 -0.0021967506 -0.0008163676
lance 0.003096696 -0.00032807273 0.0032328996 -0.0009277748 -0.0011163873 0.004970292 0.0029732606 -0.005070848 -0.0047994372 -0.00024758044 -0.00082481885 -0.003588805 0.0053316886 -0.0004440831 0.0032434033 -0.0055974047 -0.002464386 -0.0026327313 -0.0044613355 -0.003256788 0.0045061065 0.0034317393 -0.0016940809 0.0043297373 -0.0008216394 0.00245993 -0.004528664 0.0059678103 -0.0027364898 -0.0034619595 -0.0031892953 0.0013535413 0.003496367 0.0008691893 -0.005190021 -0.0018963589 -0.0023064034 0.0004143672 -0.0032370803 0.0029947818 0.001937682 0.0006883712 -0.0032972433 0.0064190608 -0.0033995416 -0.0012361683 -0.004152462 -0.002625307 0.0040713046 -0.00016295354 -0.0024427173 0.0027591656 0.004927694 8.324587e-05 -0.002263725 -0.0012789126 0.003796699 8.2937e-05 0.0036296248 -0.0024088619 -0.0033797924 -0.0033580908 0.001661999 0.0021516287 0.0020399955 -0.0030191652 -0.0042868666 0.0006794763 -0.0029337963 -0.002574827 0.0014319175 0.0034353465 0.0031404991 0.00013045002 -0.0015813546 -0.00031335713 -0.0028885195 -0.0024565589 -0.0038916196 -0.00643228 0.0012650354 0.0016044352 -0.0026816227 0.0013738034 0.0013120464 -0.00465145 0.005602024 0.0072098575 0.0038901663 -0.0019450474 -0.0042321505 0.0031983461 0.0017256443 -0.0052289255 -0.0036115127 6.276457e-05 -0.0013218162 -0.0003422284 -0.00011465159 -0.00044535697
comum 0.0028360018 -0.00497684 -4.673168e-05 -0.004364485 0.0020686567 -0.0017226693 -0.004815391 -0.0042385645 0.000202449 0.004709045 -0.0015954023 -0.0035374279 0.0058865976 -0.0036445383 0.00307433 -0.0027679137 0.00033369093 -0.0006984936 0.000547095 -0.0030013062 0.0046926253 0.004256454 -0.0015213399 0.0015118105 0.0027790908 0.002032444 0.0014379161 0.0053943973 -0.001929545 0.0064597903 0.0020748798 0.004520868 0.0013102372 0.0045720045 -0.004057037 0.00040636244 -0.004207167 -0.0034460886 -0.0010940549 0.0036014298 0.0050231456 0.0024801583 0.0033994042 0.003005572 0.0052299034 -0.0046842624 -0.003801667 0.0006907918 0.00032683183 0.0006467891 0.0015891178 -0.0012932272 -0.003757121 0.005227696 0.0022477463 -0.0018931009 0.0014998036 -0.0010325437 0.0029015443 -0.0010022639 -0.0014465844 0.005159224 0.004587393 -0.0019942385 -0.0060967715 -0.0063908347 0.002937156 0.0032825388 0.0017184524 0.0043173963 -0.0015345195 -0.003824388 -0.0032854674 0.0026465647 -0.0019507459 -0.002480297 0.006111368 0.0031515048 -0.003963053 -0.0045285495 -0.0033550684 -0.0043667275 0.0020268136 0.0001011818 -0.00030572645 0.0032119446 0.0046405317 0.00060800987 -0.00065846974 -0.005448968 0.0035128978 -0.0005759912 0.00606258 -6.595262e-05 -0.0022372017 0.004357204 0.0018660424 -0.00024346974 -0.0037262852 -0.0031574331
data -0.0017109337 0.0024450216 0.004832341 -0.0031927319 -8.599734e-05 -0.003026543 0.002188992 -0.0062409923 0.0010995363 -0.00016469136 0.0042616474 0.00050022424 0.0043991767 -0.00088250777 -0.0025135274 0.0022289648 -0.0033119959 -0.003125508 -0.002103377 0.0008425017 0.004455411 0.0013588953 -0.005127089 -0.002921044 -0.00060490775 -0.0034062038 -0.006012054 0.0056951153 -0.0042106532 0.0024979461 -0.0010750054 0.0038662076 0.0005366038 0.0038677752 0.00052675663 0.0014782089 0.0022269378 -9.234008e-05 6.8360416e-05 -0.0017963981 0.0020975012 0.0044247964 0.0053916224 0.002106238 0.0021840543 -0.0046926453 -0.0005148428 -0.0044054766 0.0046293875 -0.0007893561 -0.0033168902 0.003715575 0.0046458975 0.003919947 0.004087459 0.0011470573 -0.002435177 0.0017705548 0.0044428683 -0.0014183586 0.0038689992 0.0038952806 0.0053323098 -0.005621207 0.0024492901 -0.005458035 -0.0023101887 -0.0007140077 -0.0018825697 0.0016388923 -0.00201982 -0.0032144762 -0.0029970317 0.0041417927 0.0023002625 -0.0012379726 -0.0005945998 -0.00041664048 0.0034940357 0.0029077865 -0.00681607 -0.00027009458 0.0026989207 -0.0043823444 -0.0052316287 -0.003470616 -0.0017176776 0.008829028 0.0032355168 -0.0029311385 0.00017632062 -0.0006625256 0.007584691 -0.0032986247 -0.00044547 -0.0012882103 0.002954877 -0.0021136522 0.0010670542 0.0017445296
quantia 0.0022460604 5.526103e-05 0.0023659775 -0.0007732709 -0.0015067726 -0.0016890054 -0.0005298965 0.00012401654 0.0040341346 -0.0012461429 0.0015684314 0.0020564953 -0.0005955212 -0.0014400498 0.0037659002 -0.0006375564 -0.0021087623 0.0032483833 0.003114909 0.00051232515 -0.0026095882 0.0024640614 -0.0031046849 0.001429551 0.0028480776 0.0026556386 -0.005827707 -0.00020119599 -0.0022717686 0.0042454307 0.0034919581 0.0045512356 0.0027915493 0.00015533555 -0.00045141717 0.000792457 -0.0078024967 -0.0050947834 -0.0031342644 0.005430983 -0.00048626467 0.0014999869 0.003415003 -0.0006589114 0.0026089926 -0.0024888797 -0.0031046432 -0.00010200261 0.0021869822 0.0016215047 0.00024583592 0.00072839763 0.0034323554 0.00064970454 4.1405463e-05 -0.0020223944 0.0017882265 -0.0035306355 0.0033750592 -0.0040232935 -0.0032329687 0.00486859 -0.0028137881 -0.0067080487 -0.005400186 -0.0027217844 -0.002479612 -0.0042049517 -0.0044089933 0.0026631397 -0.00031076666 0.001875664 0.0031886967 0.0029925928 0.0011834326 -0.003086557 0.002751189 -0.002871582 -0.0003744095 -0.0063151736 -0.004286912 0.004052989 -0.004730536 -0.0012430293 -0.0019513571 -0.00051938306 0.0031425238 0.008910844 0.0013918352 0.00076332054 0.0026854638 0.0037282677 0.002629633 -0.003548145 0.0017821204 0.0033366692 0.002303893 0.0026269092 0.0051915655 -0.0048184167
financeiras -0.0054245642 -0.002964787 0.00018885294 -0.0044354904 -0.00060590595 0.0005716293 -0.005111626 -0.0032412268 -0.002449122 0.0007766401 0.00086891686 -0.005416672 0.005236656 0.00010669074 0.0019498586 -0.00410796 -0.0010538953 0.0046400838 -0.0019205335 0.0023224377 0.0012237506 0.001717742 -0.00022226378 -0.0028451618 -0.0039104535 0.0042579733 -0.0074173184 0.007105346 -0.0050718486 -7.6872675e-05 -0.0012019202 -0.0006812116 -0.000631093 0.0045006117 -0.0055700154 0.0031519153 -0.001267481 -0.007940731 -0.00023159466 -0.00021199744 -0.0020635822 0.0031945314 0.001940216 -0.00055975636 -0.002834351 0.0031501874 0.0033888 -0.0020799239 0.0022334491 -0.0015148518 -0.0038691247 -0.004610021 0.002841597 0.0029337606 -0.002226516 0.0023359333 -0.0004808644 0.0007268626 -0.0019447628 -0.007364352 0.0030769769 -0.0028716929 9.224764e-06 0.0002394548 0.00058451993 -0.0009653444 -0.002124632 0.0028152578 -0.006679475 0.0008784873 -0.007622576 0.0020548347 -0.0032420738 0.00043032318 -0.0021195773 -0.0032331776 0.0052887257 -0.0052150693 0.00045540615 -0.0053604483 -0.006513335 0.0022427908 0.00042020582 0.0040019522 -0.0024692353 -0.005620164 0.00054608105 0.003372025 0.00086281315 0.004105006 0.0041567367 -0.0002206654 0.0017760352 -0.0023065803 -0.006462816 0.00037362278 0.005934355 -0.0042311377 -0.00016615937 -0.004093428
principal 0.0010334931 -0.00031276233 -0.0040495433 -0.001267005 -0.00016886182 0.0029883867 0.0004547404 0.0012143606 -0.003163235 -0.0026982068 -0.0037556696 0.0028936905 0.0010566126 0.000656075 0.00026457422 0.002962791 -0.0035046837 0.0030187874 0.002233921 -0.0010859586 0.0034741317 -0.003763036 0.0014196495 0.0040519326 0.0050425697 -0.0016997036 -0.00564064 -0.0038613218 -0.00031477213 0.005708029 0.0007492934 -0.0021076803 -0.00060534355 -0.0036920046 0.0023640736 -0.0047736904 -0.0024447355 -0.006450942 -0.0017644322 -0.0023818796 0.0010737382 -0.0008117737 0.00039016665 -0.00054880127 -0.0018936343 0.0013887201 -0.0032842758 0.0013496114 0.004082309 0.0031408097 -0.005264555 0.0008534092 -0.0020590893 0.0030006848 0.0028006653 0.0012166118 0.0020140808 -0.0049461825 0.004339871 -0.0025462974 -0.0005724802 0.00325772 -0.0027717832 -0.005512709 -0.0039010015 -0.0013424142 0.0027236168 0.004066045 -0.0025605005 -0.0017009861 -0.0030018664 0.002283337 0.0038553143 0.0037694254 0.0049138726 -0.005006575 0.00021642726 -0.0048514022 -0.0015170543 -0.0030844444 -0.006106387 -0.004685814 0.0037842642 0.0044086063 0.001600648 -0.0015264378 0.0057780733 0.004221772 -0.0053364094 0.003189863 -0.002839166 -0.0013602247 0.0027909644 -0.0043757176 -0.0007112027 -0.0015698313 -0.00145544 -0.0045701307 -0.0016545464 0.0022572393
cada -0.0015056836 -0.0020957529 -0.0022675546 0.0040670917 0.002941135 0.0020149571 -0.0011300051 -0.004930328 -0.0008074559 -0.002459822 -0.001783364 -0.00062338874 0.0017756871 0.002888405 0.006171921 -0.0071628694 -0.0012257997 0.004004265 -0.00093438494 0.0037175592 -0.0008147547 -0.0019519288 -0.004758963 0.0027600452 -0.0036728643 0.00027780797 -0.0016339875 0.005606821 -0.0011579643 0.005917583 -0.0010285426 0.0008890415 -0.004752403 0.00030453128 -0.00014795734 0.00046715105 -0.004855315 -0.0042700376 0.0010728124 0.0066990415 0.0012591886 -0.0034803427 0.0056700106 0.003984602 0.003716299 0.0046396693 0.0032771353 0.0027220584 0.0046816017 0.00043028087 -0.0016573729 0.0006954121 -0.00027610388 0.0035677827 -0.0025294032 -0.002657043 0.00090481126 -0.0047298917 0.0009649311 -0.0041285283 0.002479082 -0.0010705028 -0.0023499716 -0.001584733 -0.0019062896 -0.0011371548 -0.0027267865 0.00037635895 0.0019206845 -0.0017393902 -0.0066364715 0.00027918463 0.0042747455 0.00123127 0.0039475947 -0.00092151185 -0.0014753415 0.0003210009 0.00377776 -0.0060268114 -0.0010077556 0.00049119664 0.0010223327 0.0015839825 -0.005961604 -0.0022907257 0.004379932 0.0054298067 -0.0046689417 -0.0010422412 -0.0016479939 -0.0010809801 0.0033189042 -0.002646665 -0.0027299381 -0.00147862 -0.0026022797 -0.0035692325 0.0040696897 -0.0038115187
administração 0.0042284755 0.0030145443 0.00441219 0.002562169 -0.0051654777 0.0034442581 -0.0022287343 0.0008656773 0.0027193914 0.0031182193 -0.0041059223 -0.0030542125 -0.0017942438 0.00040999206 0.0011575854 -0.006885763 0.0045681344 0.0030163752 -0.0060314424 0.0040920586 -0.0020399194 -0.0016992214 -0.0018541515 0.0020595642 0.0011477249 0.0040970305 -0.0029285005 0.0033557543 0.0031857793 0.003936217 0.003758319 -0.0030176307 -0.0014714672 0.0051054023 0.0027768104 0.0030808242 -0.0024083091 -0.0063014426 -0.0023074155 0.00096034084 0.0014336943 0.0014732006 0.0021382377 0.004275677 0.004598292 0.004295437 0.0044294484 -0.002465819 -0.0019186934 0.004497685 -0.0077342093 -0.004977601 -0.004209216 0.006041237 0.005927491 -0.0060301116 0.0017097061 -0.0058172448 -0.0006026167 -0.0009246718 -0.0006619486 -0.0026138932 0.005206063 -0.0006007689 0.0014849751 -0.00023468079 -0.0034601528 -0.003015129 0.0033373055 0.0050924164 -0.0065869982 0.002634881 -0.0004348187 0.005551576 0.0023187993 -0.0031528282 0.0060893055 0.0034179988 -0.0036054642 -0.0033219843 -0.002738954 0.0007492123 -0.0037951118 0.0013463626 0.0029911662 0.0016650466 0.0045147017 -0.00019624684 -0.0026629702 0.0016089425 0.0034414476 0.0010505543 0.0043842196 -0.00028833034 -0.004426187 0.00033076064 0.0055487105 0.0001722099 -0.0011527066 0.004003333
parte -0.001590616 -0.003942872 -0.00077140675 -0.004287943 0.0030948159 -0.002288354 0.002139131 -0.00012219111 -0.00076015986 -0.0012068826 0.0022032226 -0.006995113 -4.3997283e-05 -0.003079767 0.0011545741 -0.0056517697 -0.002675009 0.00054811366 0.0011239086 0.0019507058 0.0051824288 0.0011197579 0.00066518073 -0.0032799297 -0.0024154945 -6.3193256e-05 -0.0047157295 0.0044803293 -0.0042874124 -9.57817e-05 0.004028271 0.0032362018 0.0010713345 0.0020522173 -0.004619724 -0.0007163744 -0.0020976905 0.001349403 0.0034104954 0.0045870217 -0.0022903401 -0.0045077484 -0.000615533 0.0021909531 0.0022299986 0.0029736925 -0.0018421164 0.0011592401 0.0003984765 -0.0006191845 -0.002135877 0.00027783972 0.0019327634 0.004522698 0.004162002 -0.006874878 0.004108763 -0.004309382 0.0067203413 -0.008278898 0.00038327413 -0.0041997344 0.0012223005 -0.0040192404 0.0018165257 -0.0010050234 0.0037242812 -0.0029371183 -0.0033409866 -0.0005622075 -0.0012304459 -0.003262431 -0.0029454995 0.0005462082 -0.0041301227 -0.0023287144 -0.003222273 0.00018150735 -0.00034665607 -0.003106265 -0.0033723894 -0.004310866 0.00036422902 0.0041074525 -0.0057600494 0.00031961157 0.006253115 0.001336645 -0.005223185 -0.0029675611 -0.00042620985 0.005904582 0.00037478143 -0.0043048332 0.0013198328 -0.0022491144 0.0005823025 -0.0019871297 -0.003962179 0.0012507068
encargos 0.0044990247 -0.00088296895 0.003375986 -0.0005028268 -0.0058356486 0.005020927 0.000593986 -0.0014134842 -0.0040886025 0.0022644438 0.0019428425 0.0014183418 0.0023207709 -0.003456587 0.0050197593 0.001907074 -0.0039506466 0.0037773442 0.0022895914 0.0004489436 -0.002599422 -0.0016419895 0.0013898665 -0.0005811355 -0.0003858811 -0.0041482667 0.0011969506 -0.00072489737 -0.0009396525 -0.0006164798 -0.0024867135 0.002814829 -0.002841204 0.0025077316 -0.0022088243 0.0029304584 -0.0031656655 0.0019082661 -0.0005451827 0.0034985908 -0.0022294722 0.0037255883 0.0015001857 0.0028444799 0.005091258 0.0041093165 -0.004356133 0.0023088274 -0.0019401168 -0.0027521495 -0.0040917383 -0.0037558586 0.004111794 0.00055789575 0.006778185 -0.0024330167 0.005158064 -0.0010060782 0.0033180998 -0.0074026296 -0.003455742 0.0016322715 0.004505876 -0.0053807003 0.0012784264 -0.0038420896 -0.003501141 0.00352963 -0.0017737226 -0.0012617386 -0.003907492 -0.0010813995 -0.0029474841 0.002710391 -0.0008784262 0.003902235 0.0054863514 -0.002955993 0.0047234073 -0.0059765014 -0.0055795237 -0.00052839715 -0.0041185566 0.004634805 -0.0050770273 0.0030857448 0.0009775137 0.001057882 0.002773536 0.0016012375 -0.00052904425 0.0022257234 0.0044734175 4.3510896e-05 -0.0049772686 -0.003836669 -3.9680144e-05 0.00068235287 0.0052481387 -0.0017749814
